FANN_FLO_2.1
num_layers=5
learning_rate=0.700000
connection_rate=1.000000
network_type=0
learning_momentum=0.000000
training_algorithm=2
train_error_function=1
train_stop_function=0
cascade_output_change_fraction=0.010000
quickprop_decay=-0.000100
quickprop_mu=1.750000
rprop_increase_factor=1.200000
rprop_decrease_factor=0.500000
rprop_delta_min=0.000000
rprop_delta_max=50.000000
rprop_delta_zero=0.100000
cascade_output_stagnation_epochs=12
cascade_candidate_change_fraction=0.010000
cascade_candidate_stagnation_epochs=12
cascade_max_out_epochs=150
cascade_min_out_epochs=50
cascade_max_cand_epochs=150
cascade_min_cand_epochs=50
cascade_num_candidate_groups=2
bit_fail_limit=3.49999994039535520000e-001
cascade_candidate_limit=1.00000000000000000000e+003
cascade_weight_multiplier=4.00000005960464480000e-001
cascade_activation_functions_count=10
cascade_activation_functions=3 5 7 8 10 11 14 15 16 17 
cascade_activation_steepnesses_count=4
cascade_activation_steepnesses=2.50000000000000000000e-001 5.00000000000000000000e-001 7.50000000000000000000e-001 1.00000000000000000000e+000 
layer_sizes=842 4 2 2 2 
scale_included=0
neurons (num_inputs, activation_function, activation_steepness)=(0, 0, 0.00000000000000000000e+000) (0, 0, 0.00000000000000000000e+000) (0, 0, 0.00000000000000000000e+000) (0, 0, 0.00000000000000000000e+000) (0, 0, 0.00000000000000000000e+000) (0, 0, 0.00000000000000000000e+000) (0, 0, 0.00000000000000000000e+000) (0, 0, 0.00000000000000000000e+000) (0, 0, 0.00000000000000000000e+000) (0, 0, 0.00000000000000000000e+000) (0, 0, 0.00000000000000000000e+000) (0, 0, 0.00000000000000000000e+000) (0, 0, 0.00000000000000000000e+000) (0, 0, 0.00000000000000000000e+000) (0, 0, 0.00000000000000000000e+000) (0, 0, 0.00000000000000000000e+000) (0, 0, 0.00000000000000000000e+000) (0, 0, 0.00000000000000000000e+000) (0, 0, 0.00000000000000000000e+000) (0, 0, 0.00000000000000000000e+000) (0, 0, 0.00000000000000000000e+000) (0, 0, 0.00000000000000000000e+000) (0, 0, 0.00000000000000000000e+000) (0, 0, 0.00000000000000000000e+000) (0, 0, 0.00000000000000000000e+000) (0, 0, 0.00000000000000000000e+000) (0, 0, 0.00000000000000000000e+000) (0, 0, 0.00000000000000000000e+000) (0, 0, 0.00000000000000000000e+000) (0, 0, 0.00000000000000000000e+000) (0, 0, 0.00000000000000000000e+000) (0, 0, 0.00000000000000000000e+000) (0, 0, 0.00000000000000000000e+000) (0, 0, 0.00000000000000000000e+000) (0, 0, 0.00000000000000000000e+000) (0, 0, 0.00000000000000000000e+000) (0, 0, 0.00000000000000000000e+000) (0, 0, 0.00000000000000000000e+000) (0, 0, 0.00000000000000000000e+000) (0, 0, 0.00000000000000000000e+000) (0, 0, 0.00000000000000000000e+000) (0, 0, 0.00000000000000000000e+000) (0, 0, 0.00000000000000000000e+000) (0, 0, 0.00000000000000000000e+000) (0, 0, 0.00000000000000000000e+000) (0, 0, 0.00000000000000000000e+000) (0, 0, 0.00000000000000000000e+000) (0, 0, 0.00000000000000000000e+000) (0, 0, 0.00000000000000000000e+000) (0, 0, 0.00000000000000000000e+000) (0, 0, 0.00000000000000000000e+000) (0, 0, 0.00000000000000000000e+000) (0, 0, 0.00000000000000000000e+000) (0, 0, 0.00000000000000000000e+000) (0, 0, 0.00000000000000000000e+000) (0, 0, 0.00000000000000000000e+000) (0, 0, 0.00000000000000000000e+000) (0, 0, 0.00000000000000000000e+000) (0, 0, 0.00000000000000000000e+000) (0, 0, 0.00000000000000000000e+000) (0, 0, 0.00000000000000000000e+000) (0, 0, 0.00000000000000000000e+000) (0, 0, 0.00000000000000000000e+000) (0, 0, 0.00000000000000000000e+000) (0, 0, 0.00000000000000000000e+000) (0, 0, 0.00000000000000000000e+000) (0, 0, 0.00000000000000000000e+000) (0, 0, 0.00000000000000000000e+000) (0, 0, 0.00000000000000000000e+000) (0, 0, 0.00000000000000000000e+000) (0, 0, 0.00000000000000000000e+000) (0, 0, 0.00000000000000000000e+000) (0, 0, 0.00000000000000000000e+000) (0, 0, 0.00000000000000000000e+000) (0, 0, 0.00000000000000000000e+000) (0, 0, 0.00000000000000000000e+000) (0, 0, 0.00000000000000000000e+000) (0, 0, 0.00000000000000000000e+000) (0, 0, 0.00000000000000000000e+000) (0, 0, 0.00000000000000000000e+000) (0, 0, 0.00000000000000000000e+000) (0, 0, 0.00000000000000000000e+000) (0, 0, 0.00000000000000000000e+000) (0, 0, 0.00000000000000000000e+000) (0, 0, 0.00000000000000000000e+000) (0, 0, 0.00000000000000000000e+000) (0, 0, 0.00000000000000000000e+000) (0, 0, 0.00000000000000000000e+000) (0, 0, 0.00000000000000000000e+000) (0, 0, 0.00000000000000000000e+000) (0, 0, 0.00000000000000000000e+000) (0, 0, 0.00000000000000000000e+000) (0, 0, 0.00000000000000000000e+000) (0, 0, 0.00000000000000000000e+000) (0, 0, 0.00000000000000000000e+000) (0, 0, 0.00000000000000000000e+000) (0, 0, 0.00000000000000000000e+000) (0, 0, 0.00000000000000000000e+000) (0, 0, 0.00000000000000000000e+000) (0, 0, 0.00000000000000000000e+000) (0, 0, 0.00000000000000000000e+000) (0, 0, 0.00000000000000000000e+000) (0, 0, 0.00000000000000000000e+000) (0, 0, 0.00000000000000000000e+000) (0, 0, 0.00000000000000000000e+000) (0, 0, 0.00000000000000000000e+000) (0, 0, 0.00000000000000000000e+000) (0, 0, 0.00000000000000000000e+000) (0, 0, 0.00000000000000000000e+000) (0, 0, 0.00000000000000000000e+000) (0, 0, 0.00000000000000000000e+000) (0, 0, 0.00000000000000000000e+000) (0, 0, 0.00000000000000000000e+000) (0, 0, 0.00000000000000000000e+000) (0, 0, 0.00000000000000000000e+000) (0, 0, 0.00000000000000000000e+000) (0, 0, 0.00000000000000000000e+000) (0, 0, 0.00000000000000000000e+000) (0, 0, 0.00000000000000000000e+000) (0, 0, 0.00000000000000000000e+000) (0, 0, 0.00000000000000000000e+000) (0, 0, 0.00000000000000000000e+000) (0, 0, 0.00000000000000000000e+000) (0, 0, 0.00000000000000000000e+000) (0, 0, 0.00000000000000000000e+000) (0, 0, 0.00000000000000000000e+000) (0, 0, 0.00000000000000000000e+000) (0, 0, 0.00000000000000000000e+000) (0, 0, 0.00000000000000000000e+000) (0, 0, 0.00000000000000000000e+000) (0, 0, 0.00000000000000000000e+000) (0, 0, 0.00000000000000000000e+000) (0, 0, 0.00000000000000000000e+000) (0, 0, 0.00000000000000000000e+000) (0, 0, 0.00000000000000000000e+000) (0, 0, 0.00000000000000000000e+000) (0, 0, 0.00000000000000000000e+000) (0, 0, 0.00000000000000000000e+000) (0, 0, 0.00000000000000000000e+000) (0, 0, 0.00000000000000000000e+000) (0, 0, 0.00000000000000000000e+000) (0, 0, 0.00000000000000000000e+000) (0, 0, 0.00000000000000000000e+000) (0, 0, 0.00000000000000000000e+000) (0, 0, 0.00000000000000000000e+000) (0, 0, 0.00000000000000000000e+000) (0, 0, 0.00000000000000000000e+000) (0, 0, 0.00000000000000000000e+000) (0, 0, 0.00000000000000000000e+000) (0, 0, 0.00000000000000000000e+000) (0, 0, 0.00000000000000000000e+000) (0, 0, 0.00000000000000000000e+000) (0, 0, 0.00000000000000000000e+000) (0, 0, 0.00000000000000000000e+000) (0, 0, 0.00000000000000000000e+000) (0, 0, 0.00000000000000000000e+000) (0, 0, 0.00000000000000000000e+000) (0, 0, 0.00000000000000000000e+000) (0, 0, 0.00000000000000000000e+000) (0, 0, 0.00000000000000000000e+000) (0, 0, 0.00000000000000000000e+000) (0, 0, 0.00000000000000000000e+000) (0, 0, 0.00000000000000000000e+000) (0, 0, 0.00000000000000000000e+000) (0, 0, 0.00000000000000000000e+000) (0, 0, 0.00000000000000000000e+000) (0, 0, 0.00000000000000000000e+000) (0, 0, 0.00000000000000000000e+000) (0, 0, 0.00000000000000000000e+000) (0, 0, 0.00000000000000000000e+000) (0, 0, 0.00000000000000000000e+000) (0, 0, 0.00000000000000000000e+000) (0, 0, 0.00000000000000000000e+000) (0, 0, 0.00000000000000000000e+000) (0, 0, 0.00000000000000000000e+000) (0, 0, 0.00000000000000000000e+000) (0, 0, 0.00000000000000000000e+000) (0, 0, 0.00000000000000000000e+000) (0, 0, 0.00000000000000000000e+000) (0, 0, 0.00000000000000000000e+000) (0, 0, 0.00000000000000000000e+000) (0, 0, 0.00000000000000000000e+000) (0, 0, 0.00000000000000000000e+000) (0, 0, 0.00000000000000000000e+000) (0, 0, 0.00000000000000000000e+000) (0, 0, 0.00000000000000000000e+000) (0, 0, 0.00000000000000000000e+000) (0, 0, 0.00000000000000000000e+000) (0, 0, 0.00000000000000000000e+000) (0, 0, 0.00000000000000000000e+000) (0, 0, 0.00000000000000000000e+000) (0, 0, 0.00000000000000000000e+000) (0, 0, 0.00000000000000000000e+000) (0, 0, 0.00000000000000000000e+000) (0, 0, 0.00000000000000000000e+000) (0, 0, 0.00000000000000000000e+000) (0, 0, 0.00000000000000000000e+000) (0, 0, 0.00000000000000000000e+000) (0, 0, 0.00000000000000000000e+000) (0, 0, 0.00000000000000000000e+000) (0, 0, 0.00000000000000000000e+000) (0, 0, 0.00000000000000000000e+000) (0, 0, 0.00000000000000000000e+000) (0, 0, 0.00000000000000000000e+000) (0, 0, 0.00000000000000000000e+000) (0, 0, 0.00000000000000000000e+000) (0, 0, 0.00000000000000000000e+000) (0, 0, 0.00000000000000000000e+000) (0, 0, 0.00000000000000000000e+000) (0, 0, 0.00000000000000000000e+000) (0, 0, 0.00000000000000000000e+000) (0, 0, 0.00000000000000000000e+000) (0, 0, 0.00000000000000000000e+000) (0, 0, 0.00000000000000000000e+000) (0, 0, 0.00000000000000000000e+000) (0, 0, 0.00000000000000000000e+000) (0, 0, 0.00000000000000000000e+000) (0, 0, 0.00000000000000000000e+000) (0, 0, 0.00000000000000000000e+000) (0, 0, 0.00000000000000000000e+000) (0, 0, 0.00000000000000000000e+000) (0, 0, 0.00000000000000000000e+000) (0, 0, 0.00000000000000000000e+000) (0, 0, 0.00000000000000000000e+000) (0, 0, 0.00000000000000000000e+000) (0, 0, 0.00000000000000000000e+000) (0, 0, 0.00000000000000000000e+000) (0, 0, 0.00000000000000000000e+000) (0, 0, 0.00000000000000000000e+000) (0, 0, 0.00000000000000000000e+000) (0, 0, 0.00000000000000000000e+000) (0, 0, 0.00000000000000000000e+000) (0, 0, 0.00000000000000000000e+000) (0, 0, 0.00000000000000000000e+000) (0, 0, 0.00000000000000000000e+000) (0, 0, 0.00000000000000000000e+000) (0, 0, 0.00000000000000000000e+000) (0, 0, 0.00000000000000000000e+000) (0, 0, 0.00000000000000000000e+000) (0, 0, 0.00000000000000000000e+000) (0, 0, 0.00000000000000000000e+000) (0, 0, 0.00000000000000000000e+000) (0, 0, 0.00000000000000000000e+000) (0, 0, 0.00000000000000000000e+000) (0, 0, 0.00000000000000000000e+000) (0, 0, 0.00000000000000000000e+000) (0, 0, 0.00000000000000000000e+000) (0, 0, 0.00000000000000000000e+000) (0, 0, 0.00000000000000000000e+000) (0, 0, 0.00000000000000000000e+000) (0, 0, 0.00000000000000000000e+000) (0, 0, 0.00000000000000000000e+000) (0, 0, 0.00000000000000000000e+000) (0, 0, 0.00000000000000000000e+000) (0, 0, 0.00000000000000000000e+000) (0, 0, 0.00000000000000000000e+000) (0, 0, 0.00000000000000000000e+000) (0, 0, 0.00000000000000000000e+000) (0, 0, 0.00000000000000000000e+000) (0, 0, 0.00000000000000000000e+000) (0, 0, 0.00000000000000000000e+000) (0, 0, 0.00000000000000000000e+000) (0, 0, 0.00000000000000000000e+000) (0, 0, 0.00000000000000000000e+000) (0, 0, 0.00000000000000000000e+000) (0, 0, 0.00000000000000000000e+000) (0, 0, 0.00000000000000000000e+000) (0, 0, 0.00000000000000000000e+000) (0, 0, 0.00000000000000000000e+000) (0, 0, 0.00000000000000000000e+000) (0, 0, 0.00000000000000000000e+000) (0, 0, 0.00000000000000000000e+000) (0, 0, 0.00000000000000000000e+000) (0, 0, 0.00000000000000000000e+000) (0, 0, 0.00000000000000000000e+000) (0, 0, 0.00000000000000000000e+000) (0, 0, 0.00000000000000000000e+000) (0, 0, 0.00000000000000000000e+000) (0, 0, 0.00000000000000000000e+000) (0, 0, 0.00000000000000000000e+000) (0, 0, 0.00000000000000000000e+000) (0, 0, 0.00000000000000000000e+000) (0, 0, 0.00000000000000000000e+000) (0, 0, 0.00000000000000000000e+000) (0, 0, 0.00000000000000000000e+000) (0, 0, 0.00000000000000000000e+000) (0, 0, 0.00000000000000000000e+000) (0, 0, 0.00000000000000000000e+000) (0, 0, 0.00000000000000000000e+000) (0, 0, 0.00000000000000000000e+000) (0, 0, 0.00000000000000000000e+000) (0, 0, 0.00000000000000000000e+000) (0, 0, 0.00000000000000000000e+000) (0, 0, 0.00000000000000000000e+000) (0, 0, 0.00000000000000000000e+000) (0, 0, 0.00000000000000000000e+000) (0, 0, 0.00000000000000000000e+000) (0, 0, 0.00000000000000000000e+000) (0, 0, 0.00000000000000000000e+000) (0, 0, 0.00000000000000000000e+000) (0, 0, 0.00000000000000000000e+000) (0, 0, 0.00000000000000000000e+000) (0, 0, 0.00000000000000000000e+000) (0, 0, 0.00000000000000000000e+000) (0, 0, 0.00000000000000000000e+000) (0, 0, 0.00000000000000000000e+000) (0, 0, 0.00000000000000000000e+000) (0, 0, 0.00000000000000000000e+000) (0, 0, 0.00000000000000000000e+000) (0, 0, 0.00000000000000000000e+000) (0, 0, 0.00000000000000000000e+000) (0, 0, 0.00000000000000000000e+000) (0, 0, 0.00000000000000000000e+000) (0, 0, 0.00000000000000000000e+000) (0, 0, 0.00000000000000000000e+000) (0, 0, 0.00000000000000000000e+000) (0, 0, 0.00000000000000000000e+000) (0, 0, 0.00000000000000000000e+000) (0, 0, 0.00000000000000000000e+000) (0, 0, 0.00000000000000000000e+000) (0, 0, 0.00000000000000000000e+000) (0, 0, 0.00000000000000000000e+000) (0, 0, 0.00000000000000000000e+000) (0, 0, 0.00000000000000000000e+000) (0, 0, 0.00000000000000000000e+000) (0, 0, 0.00000000000000000000e+000) (0, 0, 0.00000000000000000000e+000) (0, 0, 0.00000000000000000000e+000) (0, 0, 0.00000000000000000000e+000) (0, 0, 0.00000000000000000000e+000) (0, 0, 0.00000000000000000000e+000) (0, 0, 0.00000000000000000000e+000) (0, 0, 0.00000000000000000000e+000) (0, 0, 0.00000000000000000000e+000) (0, 0, 0.00000000000000000000e+000) (0, 0, 0.00000000000000000000e+000) (0, 0, 0.00000000000000000000e+000) (0, 0, 0.00000000000000000000e+000) (0, 0, 0.00000000000000000000e+000) (0, 0, 0.00000000000000000000e+000) (0, 0, 0.00000000000000000000e+000) (0, 0, 0.00000000000000000000e+000) (0, 0, 0.00000000000000000000e+000) (0, 0, 0.00000000000000000000e+000) (0, 0, 0.00000000000000000000e+000) (0, 0, 0.00000000000000000000e+000) (0, 0, 0.00000000000000000000e+000) (0, 0, 0.00000000000000000000e+000) (0, 0, 0.00000000000000000000e+000) (0, 0, 0.00000000000000000000e+000) (0, 0, 0.00000000000000000000e+000) (0, 0, 0.00000000000000000000e+000) (0, 0, 0.00000000000000000000e+000) (0, 0, 0.00000000000000000000e+000) (0, 0, 0.00000000000000000000e+000) (0, 0, 0.00000000000000000000e+000) (0, 0, 0.00000000000000000000e+000) (0, 0, 0.00000000000000000000e+000) (0, 0, 0.00000000000000000000e+000) (0, 0, 0.00000000000000000000e+000) (0, 0, 0.00000000000000000000e+000) (0, 0, 0.00000000000000000000e+000) (0, 0, 0.00000000000000000000e+000) (0, 0, 0.00000000000000000000e+000) (0, 0, 0.00000000000000000000e+000) (0, 0, 0.00000000000000000000e+000) (0, 0, 0.00000000000000000000e+000) (0, 0, 0.00000000000000000000e+000) (0, 0, 0.00000000000000000000e+000) (0, 0, 0.00000000000000000000e+000) (0, 0, 0.00000000000000000000e+000) (0, 0, 0.00000000000000000000e+000) (0, 0, 0.00000000000000000000e+000) (0, 0, 0.00000000000000000000e+000) (0, 0, 0.00000000000000000000e+000) (0, 0, 0.00000000000000000000e+000) (0, 0, 0.00000000000000000000e+000) (0, 0, 0.00000000000000000000e+000) (0, 0, 0.00000000000000000000e+000) (0, 0, 0.00000000000000000000e+000) (0, 0, 0.00000000000000000000e+000) (0, 0, 0.00000000000000000000e+000) (0, 0, 0.00000000000000000000e+000) (0, 0, 0.00000000000000000000e+000) (0, 0, 0.00000000000000000000e+000) (0, 0, 0.00000000000000000000e+000) (0, 0, 0.00000000000000000000e+000) (0, 0, 0.00000000000000000000e+000) (0, 0, 0.00000000000000000000e+000) (0, 0, 0.00000000000000000000e+000) (0, 0, 0.00000000000000000000e+000) (0, 0, 0.00000000000000000000e+000) (0, 0, 0.00000000000000000000e+000) (0, 0, 0.00000000000000000000e+000) (0, 0, 0.00000000000000000000e+000) (0, 0, 0.00000000000000000000e+000) (0, 0, 0.00000000000000000000e+000) (0, 0, 0.00000000000000000000e+000) (0, 0, 0.00000000000000000000e+000) (0, 0, 0.00000000000000000000e+000) (0, 0, 0.00000000000000000000e+000) (0, 0, 0.00000000000000000000e+000) (0, 0, 0.00000000000000000000e+000) (0, 0, 0.00000000000000000000e+000) (0, 0, 0.00000000000000000000e+000) (0, 0, 0.00000000000000000000e+000) (0, 0, 0.00000000000000000000e+000) (0, 0, 0.00000000000000000000e+000) (0, 0, 0.00000000000000000000e+000) (0, 0, 0.00000000000000000000e+000) (0, 0, 0.00000000000000000000e+000) (0, 0, 0.00000000000000000000e+000) (0, 0, 0.00000000000000000000e+000) (0, 0, 0.00000000000000000000e+000) (0, 0, 0.00000000000000000000e+000) (0, 0, 0.00000000000000000000e+000) (0, 0, 0.00000000000000000000e+000) (0, 0, 0.00000000000000000000e+000) (0, 0, 0.00000000000000000000e+000) (0, 0, 0.00000000000000000000e+000) (0, 0, 0.00000000000000000000e+000) (0, 0, 0.00000000000000000000e+000) (0, 0, 0.00000000000000000000e+000) (0, 0, 0.00000000000000000000e+000) (0, 0, 0.00000000000000000000e+000) (0, 0, 0.00000000000000000000e+000) (0, 0, 0.00000000000000000000e+000) (0, 0, 0.00000000000000000000e+000) (0, 0, 0.00000000000000000000e+000) (0, 0, 0.00000000000000000000e+000) (0, 0, 0.00000000000000000000e+000) (0, 0, 0.00000000000000000000e+000) (0, 0, 0.00000000000000000000e+000) (0, 0, 0.00000000000000000000e+000) (0, 0, 0.00000000000000000000e+000) (0, 0, 0.00000000000000000000e+000) (0, 0, 0.00000000000000000000e+000) (0, 0, 0.00000000000000000000e+000) (0, 0, 0.00000000000000000000e+000) (0, 0, 0.00000000000000000000e+000) (0, 0, 0.00000000000000000000e+000) (0, 0, 0.00000000000000000000e+000) (0, 0, 0.00000000000000000000e+000) (0, 0, 0.00000000000000000000e+000) (0, 0, 0.00000000000000000000e+000) (0, 0, 0.00000000000000000000e+000) (0, 0, 0.00000000000000000000e+000) (0, 0, 0.00000000000000000000e+000) (0, 0, 0.00000000000000000000e+000) (0, 0, 0.00000000000000000000e+000) (0, 0, 0.00000000000000000000e+000) (0, 0, 0.00000000000000000000e+000) (0, 0, 0.00000000000000000000e+000) (0, 0, 0.00000000000000000000e+000) (0, 0, 0.00000000000000000000e+000) (0, 0, 0.00000000000000000000e+000) (0, 0, 0.00000000000000000000e+000) (0, 0, 0.00000000000000000000e+000) (0, 0, 0.00000000000000000000e+000) (0, 0, 0.00000000000000000000e+000) (0, 0, 0.00000000000000000000e+000) (0, 0, 0.00000000000000000000e+000) (0, 0, 0.00000000000000000000e+000) (0, 0, 0.00000000000000000000e+000) (0, 0, 0.00000000000000000000e+000) (0, 0, 0.00000000000000000000e+000) (0, 0, 0.00000000000000000000e+000) (0, 0, 0.00000000000000000000e+000) (0, 0, 0.00000000000000000000e+000) (0, 0, 0.00000000000000000000e+000) (0, 0, 0.00000000000000000000e+000) (0, 0, 0.00000000000000000000e+000) (0, 0, 0.00000000000000000000e+000) (0, 0, 0.00000000000000000000e+000) (0, 0, 0.00000000000000000000e+000) (0, 0, 0.00000000000000000000e+000) (0, 0, 0.00000000000000000000e+000) (0, 0, 0.00000000000000000000e+000) (0, 0, 0.00000000000000000000e+000) (0, 0, 0.00000000000000000000e+000) (0, 0, 0.00000000000000000000e+000) (0, 0, 0.00000000000000000000e+000) (0, 0, 0.00000000000000000000e+000) (0, 0, 0.00000000000000000000e+000) (0, 0, 0.00000000000000000000e+000) (0, 0, 0.00000000000000000000e+000) (0, 0, 0.00000000000000000000e+000) (0, 0, 0.00000000000000000000e+000) (0, 0, 0.00000000000000000000e+000) (0, 0, 0.00000000000000000000e+000) (0, 0, 0.00000000000000000000e+000) (0, 0, 0.00000000000000000000e+000) (0, 0, 0.00000000000000000000e+000) (0, 0, 0.00000000000000000000e+000) (0, 0, 0.00000000000000000000e+000) (0, 0, 0.00000000000000000000e+000) (0, 0, 0.00000000000000000000e+000) (0, 0, 0.00000000000000000000e+000) (0, 0, 0.00000000000000000000e+000) (0, 0, 0.00000000000000000000e+000) (0, 0, 0.00000000000000000000e+000) (0, 0, 0.00000000000000000000e+000) (0, 0, 0.00000000000000000000e+000) (0, 0, 0.00000000000000000000e+000) (0, 0, 0.00000000000000000000e+000) (0, 0, 0.00000000000000000000e+000) (0, 0, 0.00000000000000000000e+000) (0, 0, 0.00000000000000000000e+000) (0, 0, 0.00000000000000000000e+000) (0, 0, 0.00000000000000000000e+000) (0, 0, 0.00000000000000000000e+000) (0, 0, 0.00000000000000000000e+000) (0, 0, 0.00000000000000000000e+000) (0, 0, 0.00000000000000000000e+000) (0, 0, 0.00000000000000000000e+000) (0, 0, 0.00000000000000000000e+000) (0, 0, 0.00000000000000000000e+000) (0, 0, 0.00000000000000000000e+000) (0, 0, 0.00000000000000000000e+000) (0, 0, 0.00000000000000000000e+000) (0, 0, 0.00000000000000000000e+000) (0, 0, 0.00000000000000000000e+000) (0, 0, 0.00000000000000000000e+000) (0, 0, 0.00000000000000000000e+000) (0, 0, 0.00000000000000000000e+000) (0, 0, 0.00000000000000000000e+000) (0, 0, 0.00000000000000000000e+000) (0, 0, 0.00000000000000000000e+000) (0, 0, 0.00000000000000000000e+000) (0, 0, 0.00000000000000000000e+000) (0, 0, 0.00000000000000000000e+000) (0, 0, 0.00000000000000000000e+000) (0, 0, 0.00000000000000000000e+000) (0, 0, 0.00000000000000000000e+000) (0, 0, 0.00000000000000000000e+000) (0, 0, 0.00000000000000000000e+000) (0, 0, 0.00000000000000000000e+000) (0, 0, 0.00000000000000000000e+000) (0, 0, 0.00000000000000000000e+000) (0, 0, 0.00000000000000000000e+000) (0, 0, 0.00000000000000000000e+000) (0, 0, 0.00000000000000000000e+000) (0, 0, 0.00000000000000000000e+000) (0, 0, 0.00000000000000000000e+000) (0, 0, 0.00000000000000000000e+000) (0, 0, 0.00000000000000000000e+000) (0, 0, 0.00000000000000000000e+000) (0, 0, 0.00000000000000000000e+000) (0, 0, 0.00000000000000000000e+000) (0, 0, 0.00000000000000000000e+000) (0, 0, 0.00000000000000000000e+000) (0, 0, 0.00000000000000000000e+000) (0, 0, 0.00000000000000000000e+000) (0, 0, 0.00000000000000000000e+000) (0, 0, 0.00000000000000000000e+000) (0, 0, 0.00000000000000000000e+000) (0, 0, 0.00000000000000000000e+000) (0, 0, 0.00000000000000000000e+000) (0, 0, 0.00000000000000000000e+000) (0, 0, 0.00000000000000000000e+000) (0, 0, 0.00000000000000000000e+000) (0, 0, 0.00000000000000000000e+000) (0, 0, 0.00000000000000000000e+000) (0, 0, 0.00000000000000000000e+000) (0, 0, 0.00000000000000000000e+000) (0, 0, 0.00000000000000000000e+000) (0, 0, 0.00000000000000000000e+000) (0, 0, 0.00000000000000000000e+000) (0, 0, 0.00000000000000000000e+000) (0, 0, 0.00000000000000000000e+000) (0, 0, 0.00000000000000000000e+000) (0, 0, 0.00000000000000000000e+000) (0, 0, 0.00000000000000000000e+000) (0, 0, 0.00000000000000000000e+000) (0, 0, 0.00000000000000000000e+000) (0, 0, 0.00000000000000000000e+000) (0, 0, 0.00000000000000000000e+000) (0, 0, 0.00000000000000000000e+000) (0, 0, 0.00000000000000000000e+000) (0, 0, 0.00000000000000000000e+000) (0, 0, 0.00000000000000000000e+000) (0, 0, 0.00000000000000000000e+000) (0, 0, 0.00000000000000000000e+000) (0, 0, 0.00000000000000000000e+000) (0, 0, 0.00000000000000000000e+000) (0, 0, 0.00000000000000000000e+000) (0, 0, 0.00000000000000000000e+000) (0, 0, 0.00000000000000000000e+000) (0, 0, 0.00000000000000000000e+000) (0, 0, 0.00000000000000000000e+000) (0, 0, 0.00000000000000000000e+000) (0, 0, 0.00000000000000000000e+000) (0, 0, 0.00000000000000000000e+000) (0, 0, 0.00000000000000000000e+000) (0, 0, 0.00000000000000000000e+000) (0, 0, 0.00000000000000000000e+000) (0, 0, 0.00000000000000000000e+000) (0, 0, 0.00000000000000000000e+000) (0, 0, 0.00000000000000000000e+000) (0, 0, 0.00000000000000000000e+000) (0, 0, 0.00000000000000000000e+000) (0, 0, 0.00000000000000000000e+000) (0, 0, 0.00000000000000000000e+000) (0, 0, 0.00000000000000000000e+000) (0, 0, 0.00000000000000000000e+000) (0, 0, 0.00000000000000000000e+000) (0, 0, 0.00000000000000000000e+000) (0, 0, 0.00000000000000000000e+000) (0, 0, 0.00000000000000000000e+000) (0, 0, 0.00000000000000000000e+000) (0, 0, 0.00000000000000000000e+000) (0, 0, 0.00000000000000000000e+000) (0, 0, 0.00000000000000000000e+000) (0, 0, 0.00000000000000000000e+000) (0, 0, 0.00000000000000000000e+000) (0, 0, 0.00000000000000000000e+000) (0, 0, 0.00000000000000000000e+000) (0, 0, 0.00000000000000000000e+000) (0, 0, 0.00000000000000000000e+000) (0, 0, 0.00000000000000000000e+000) (0, 0, 0.00000000000000000000e+000) (0, 0, 0.00000000000000000000e+000) (0, 0, 0.00000000000000000000e+000) (0, 0, 0.00000000000000000000e+000) (0, 0, 0.00000000000000000000e+000) (0, 0, 0.00000000000000000000e+000) (0, 0, 0.00000000000000000000e+000) (0, 0, 0.00000000000000000000e+000) (0, 0, 0.00000000000000000000e+000) (0, 0, 0.00000000000000000000e+000) (0, 0, 0.00000000000000000000e+000) (0, 0, 0.00000000000000000000e+000) (0, 0, 0.00000000000000000000e+000) (0, 0, 0.00000000000000000000e+000) (0, 0, 0.00000000000000000000e+000) (0, 0, 0.00000000000000000000e+000) (0, 0, 0.00000000000000000000e+000) (0, 0, 0.00000000000000000000e+000) (0, 0, 0.00000000000000000000e+000) (0, 0, 0.00000000000000000000e+000) (0, 0, 0.00000000000000000000e+000) (0, 0, 0.00000000000000000000e+000) (0, 0, 0.00000000000000000000e+000) (0, 0, 0.00000000000000000000e+000) (0, 0, 0.00000000000000000000e+000) (0, 0, 0.00000000000000000000e+000) (0, 0, 0.00000000000000000000e+000) (0, 0, 0.00000000000000000000e+000) (0, 0, 0.00000000000000000000e+000) (0, 0, 0.00000000000000000000e+000) (0, 0, 0.00000000000000000000e+000) (0, 0, 0.00000000000000000000e+000) (0, 0, 0.00000000000000000000e+000) (0, 0, 0.00000000000000000000e+000) (0, 0, 0.00000000000000000000e+000) (0, 0, 0.00000000000000000000e+000) (0, 0, 0.00000000000000000000e+000) (0, 0, 0.00000000000000000000e+000) (0, 0, 0.00000000000000000000e+000) (0, 0, 0.00000000000000000000e+000) (0, 0, 0.00000000000000000000e+000) (0, 0, 0.00000000000000000000e+000) (0, 0, 0.00000000000000000000e+000) (0, 0, 0.00000000000000000000e+000) (0, 0, 0.00000000000000000000e+000) (0, 0, 0.00000000000000000000e+000) (0, 0, 0.00000000000000000000e+000) (0, 0, 0.00000000000000000000e+000) (0, 0, 0.00000000000000000000e+000) (0, 0, 0.00000000000000000000e+000) (0, 0, 0.00000000000000000000e+000) (0, 0, 0.00000000000000000000e+000) (0, 0, 0.00000000000000000000e+000) (0, 0, 0.00000000000000000000e+000) (0, 0, 0.00000000000000000000e+000) (0, 0, 0.00000000000000000000e+000) (0, 0, 0.00000000000000000000e+000) (0, 0, 0.00000000000000000000e+000) (0, 0, 0.00000000000000000000e+000) (0, 0, 0.00000000000000000000e+000) (0, 0, 0.00000000000000000000e+000) (0, 0, 0.00000000000000000000e+000) (0, 0, 0.00000000000000000000e+000) (0, 0, 0.00000000000000000000e+000) (0, 0, 0.00000000000000000000e+000) (0, 0, 0.00000000000000000000e+000) (0, 0, 0.00000000000000000000e+000) (0, 0, 0.00000000000000000000e+000) (0, 0, 0.00000000000000000000e+000) (0, 0, 0.00000000000000000000e+000) (0, 0, 0.00000000000000000000e+000) (0, 0, 0.00000000000000000000e+000) (0, 0, 0.00000000000000000000e+000) (0, 0, 0.00000000000000000000e+000) (0, 0, 0.00000000000000000000e+000) (0, 0, 0.00000000000000000000e+000) (0, 0, 0.00000000000000000000e+000) (0, 0, 0.00000000000000000000e+000) (0, 0, 0.00000000000000000000e+000) (0, 0, 0.00000000000000000000e+000) (0, 0, 0.00000000000000000000e+000) (0, 0, 0.00000000000000000000e+000) (0, 0, 0.00000000000000000000e+000) (0, 0, 0.00000000000000000000e+000) (0, 0, 0.00000000000000000000e+000) (0, 0, 0.00000000000000000000e+000) (0, 0, 0.00000000000000000000e+000) (0, 0, 0.00000000000000000000e+000) (0, 0, 0.00000000000000000000e+000) (0, 0, 0.00000000000000000000e+000) (0, 0, 0.00000000000000000000e+000) (0, 0, 0.00000000000000000000e+000) (0, 0, 0.00000000000000000000e+000) (0, 0, 0.00000000000000000000e+000) (0, 0, 0.00000000000000000000e+000) (0, 0, 0.00000000000000000000e+000) (0, 0, 0.00000000000000000000e+000) (0, 0, 0.00000000000000000000e+000) (0, 0, 0.00000000000000000000e+000) (0, 0, 0.00000000000000000000e+000) (0, 0, 0.00000000000000000000e+000) (0, 0, 0.00000000000000000000e+000) (0, 0, 0.00000000000000000000e+000) (0, 0, 0.00000000000000000000e+000) (0, 0, 0.00000000000000000000e+000) (0, 0, 0.00000000000000000000e+000) (0, 0, 0.00000000000000000000e+000) (0, 0, 0.00000000000000000000e+000) (0, 0, 0.00000000000000000000e+000) (0, 0, 0.00000000000000000000e+000) (0, 0, 0.00000000000000000000e+000) (0, 0, 0.00000000000000000000e+000) (0, 0, 0.00000000000000000000e+000) (0, 0, 0.00000000000000000000e+000) (0, 0, 0.00000000000000000000e+000) (0, 0, 0.00000000000000000000e+000) (0, 0, 0.00000000000000000000e+000) (0, 0, 0.00000000000000000000e+000) (0, 0, 0.00000000000000000000e+000) (0, 0, 0.00000000000000000000e+000) (0, 0, 0.00000000000000000000e+000) (0, 0, 0.00000000000000000000e+000) (0, 0, 0.00000000000000000000e+000) (0, 0, 0.00000000000000000000e+000) (0, 0, 0.00000000000000000000e+000) (0, 0, 0.00000000000000000000e+000) (0, 0, 0.00000000000000000000e+000) (0, 0, 0.00000000000000000000e+000) (0, 0, 0.00000000000000000000e+000) (0, 0, 0.00000000000000000000e+000) (0, 0, 0.00000000000000000000e+000) (0, 0, 0.00000000000000000000e+000) (0, 0, 0.00000000000000000000e+000) (0, 0, 0.00000000000000000000e+000) (0, 0, 0.00000000000000000000e+000) (0, 0, 0.00000000000000000000e+000) (0, 0, 0.00000000000000000000e+000) (0, 0, 0.00000000000000000000e+000) (0, 0, 0.00000000000000000000e+000) (0, 0, 0.00000000000000000000e+000) (0, 0, 0.00000000000000000000e+000) (0, 0, 0.00000000000000000000e+000) (0, 0, 0.00000000000000000000e+000) (0, 0, 0.00000000000000000000e+000) (0, 0, 0.00000000000000000000e+000) (0, 0, 0.00000000000000000000e+000) (0, 0, 0.00000000000000000000e+000) (0, 0, 0.00000000000000000000e+000) (0, 0, 0.00000000000000000000e+000) (0, 0, 0.00000000000000000000e+000) (0, 0, 0.00000000000000000000e+000) (0, 0, 0.00000000000000000000e+000) (0, 0, 0.00000000000000000000e+000) (0, 0, 0.00000000000000000000e+000) (0, 0, 0.00000000000000000000e+000) (0, 0, 0.00000000000000000000e+000) (0, 0, 0.00000000000000000000e+000) (0, 0, 0.00000000000000000000e+000) (0, 0, 0.00000000000000000000e+000) (0, 0, 0.00000000000000000000e+000) (0, 0, 0.00000000000000000000e+000) (0, 0, 0.00000000000000000000e+000) (0, 0, 0.00000000000000000000e+000) (0, 0, 0.00000000000000000000e+000) (0, 0, 0.00000000000000000000e+000) (0, 0, 0.00000000000000000000e+000) (0, 0, 0.00000000000000000000e+000) (0, 0, 0.00000000000000000000e+000) (0, 0, 0.00000000000000000000e+000) (0, 0, 0.00000000000000000000e+000) (0, 0, 0.00000000000000000000e+000) (0, 0, 0.00000000000000000000e+000) (0, 0, 0.00000000000000000000e+000) (0, 0, 0.00000000000000000000e+000) (0, 0, 0.00000000000000000000e+000) (0, 0, 0.00000000000000000000e+000) (0, 0, 0.00000000000000000000e+000) (0, 0, 0.00000000000000000000e+000) (0, 0, 0.00000000000000000000e+000) (0, 0, 0.00000000000000000000e+000) (0, 0, 0.00000000000000000000e+000) (0, 0, 0.00000000000000000000e+000) (0, 0, 0.00000000000000000000e+000) (0, 0, 0.00000000000000000000e+000) (0, 0, 0.00000000000000000000e+000) (0, 0, 0.00000000000000000000e+000) (0, 0, 0.00000000000000000000e+000) (0, 0, 0.00000000000000000000e+000) (0, 0, 0.00000000000000000000e+000) (0, 0, 0.00000000000000000000e+000) (0, 0, 0.00000000000000000000e+000) (0, 0, 0.00000000000000000000e+000) (0, 0, 0.00000000000000000000e+000) (0, 0, 0.00000000000000000000e+000) (0, 0, 0.00000000000000000000e+000) (0, 0, 0.00000000000000000000e+000) (0, 0, 0.00000000000000000000e+000) (0, 0, 0.00000000000000000000e+000) (0, 0, 0.00000000000000000000e+000) (0, 0, 0.00000000000000000000e+000) (0, 0, 0.00000000000000000000e+000) (0, 0, 0.00000000000000000000e+000) (0, 0, 0.00000000000000000000e+000) (0, 0, 0.00000000000000000000e+000) (0, 0, 0.00000000000000000000e+000) (0, 0, 0.00000000000000000000e+000) (0, 0, 0.00000000000000000000e+000) (0, 0, 0.00000000000000000000e+000) (0, 0, 0.00000000000000000000e+000) (0, 0, 0.00000000000000000000e+000) (0, 0, 0.00000000000000000000e+000) (0, 0, 0.00000000000000000000e+000) (0, 0, 0.00000000000000000000e+000) (0, 0, 0.00000000000000000000e+000) (0, 0, 0.00000000000000000000e+000) (0, 0, 0.00000000000000000000e+000) (0, 0, 0.00000000000000000000e+000) (0, 0, 0.00000000000000000000e+000) (0, 0, 0.00000000000000000000e+000) (0, 0, 0.00000000000000000000e+000) (0, 0, 0.00000000000000000000e+000) (0, 0, 0.00000000000000000000e+000) (842, 0, 5.00000000000000000000e-001) (842, 0, 5.00000000000000000000e-001) (842, 0, 5.00000000000000000000e-001) (0, 0, 0.00000000000000000000e+000) (4, 0, 5.00000000000000000000e-001) (0, 0, 0.00000000000000000000e+000) (2, 0, 5.00000000000000000000e-001) (0, 0, 0.00000000000000000000e+000) (2, 0, 5.00000000000000000000e-001) (0, 0, 0.00000000000000000000e+000) 
connections (connected_to_neuron, weight)=(0, 2.72687768936157230000e+000) (1, 2.72470498085021970000e+000) (2, 2.75051069259643550000e+000) (3, 2.60186553001403810000e+000) (4, 2.60161542892456050000e+000) (5, 2.62052392959594730000e+000) (6, 2.77053618431091310000e+000) (7, 2.61658716201782230000e+000) (8, 2.74122714996337890000e+000) (9, 2.62572431564331050000e+000) (10, 2.75665068626403810000e+000) (11, 2.63165068626403810000e+000) (12, 2.64029335975646970000e+000) (13, 2.70237827301025390000e+000) (14, 2.58520913124084470000e+000) (15, 2.63017368316650390000e+000) (16, 2.61285805702209470000e+000) (17, 2.61821079254150390000e+000) (18, 2.72344756126403810000e+000) (19, 2.59920454025268550000e+000) (20, 2.63142490386962890000e+000) (21, 2.75463652610778810000e+000) (22, 2.63038730621337890000e+000) (23, 2.65206098556518550000e+000) (24, 2.58509302139282230000e+000) (25, 2.65733432769775390000e+000) (26, 2.72996616363525390000e+000) (27, 2.63376259803771970000e+000) (28, 2.68807792663574220000e+000) (29, 2.73574018478393550000e+000) (30, 2.88969874382019040000e-001) (31, 5.33849000930786130000e-001) (32, 2.78669685125350950000e-001) (33, 1.61760121583938600000e-001) (34, 1.26189851760864260000e+000) (35, 1.63563415408134460000e-001) (36, 2.02023565769195560000e-001) (37, 2.94354528188705440000e-001) (38, 6.39005184173583980000e-001) (39, 4.49688047170639040000e-001) (40, 6.81289374828338620000e-001) (41, 1.25974461436271670000e-001) (42, -1.81722566485404970000e-001) (43, 5.68790376186370850000e-001) (44, 8.02788585424423220000e-002) (45, 4.92992639541625980000e-001) (46, 5.39026737213134770000e-001) (47, 2.68948853015899660000e-001) (48, -2.09761455655097960000e-001) (49, 2.92762309312820430000e-001) (50, 5.31744480133056640000e-001) (51, 6.41321301460266110000e-001) (52, 5.52462100982666020000e-001) (53, 1.62503629922866820000e-001) (54, 7.89946615695953370000e-001) (55, 3.92581641674041750000e-001) (56, 7.06101953983306880000e-001) (57, 2.66141748428344730000e+000) (58, 2.67505288124084470000e+000) (59, 3.05009555816650390000e+000) (60, 6.92424178123474120000e-001) (61, 3.27008396387100220000e-001) (62, 3.31760346889495850000e-001) (63, 5.67972719669342040000e-001) (64, 4.48806226253509520000e-001) (65, 5.47645449638366700000e-001) (66, 4.72136795520782470000e-001) (67, 5.67285478115081790000e-001) (68, 6.77994549274444580000e-001) (69, 6.91080391407012940000e-001) (70, 4.27013307809829710000e-001) (71, 1.70833003520965580000e+000) (72, 4.29428070783615110000e-001) (73, 2.17128336429595950000e-001) (74, 6.48097395896911620000e-001) (75, 4.40431982278823850000e-001) (76, 8.14538076519966130000e-002) (77, 8.52985680103302000000e-001) (78, 3.27445328235626220000e-001) (79, 3.44868153333663940000e-002) (80, 1.73032090067863460000e-001) (81, 1.04295730590820310000e+000) (82, 6.20654881000518800000e-001) (83, 2.19269484281539920000e-001) (84, 6.40702307224273680000e-001) (85, 8.41946840286254880000e-001) (86, 2.72883701324462890000e+000) (87, 2.72866010665893550000e+000) (88, 5.14219105243682860000e-001) (89, 8.19134414196014400000e-001) (90, 6.24095201492309570000e-001) (91, 1.59254297614097600000e-001) (92, 4.52431023120880130000e-001) (93, -2.35424309968948360000e-001) (94, -1.55713530257344250000e-002) (95, 2.12263584136962890000e-001) (96, -5.91631568968296050000e-002) (97, 4.51737880706787110000e-001) (98, 2.72837370634078980000e-001) (99, -4.45669561624526980000e-001) (100, 5.53410589694976810000e-001) (101, 8.95859599113464360000e-001) (102, 6.73471629619598390000e-001) (103, -4.04103696346282960000e-002) (104, 7.11922764778137210000e-001) (105, 6.81530475616455080000e-001) (106, -9.73447114229202270000e-002) (107, 1.87173157930374150000e-001) (108, 5.87466880679130550000e-002) (109, 5.63959717750549320000e-001) (110, 1.92576214671134950000e-001) (111, 2.29607969522476200000e-001) (112, 2.97718077898025510000e-001) (113, 1.62367776036262510000e-001) (114, 4.80183780193328860000e-001) (115, 2.66185712814331050000e+000) (116, 2.70665073394775390000e+000) (117, 9.95964556932449340000e-002) (118, 5.67303478717803960000e-001) (119, 1.86930537223815920000e-001) (120, 3.31617742776870730000e-001) (121, -6.70617446303367610000e-002) (122, 4.81464475393295290000e-001) (123, 5.79999089241027830000e-001) (124, 1.03819894790649410000e+000) (125, -8.25995579361915590000e-002) (126, 4.45834964513778690000e-001) (127, 9.18126940727233890000e-001) (128, 7.96947121620178220000e-001) (129, 4.57376897335052490000e-001) (130, 3.29454600811004640000e-001) (131, 7.17434585094451900000e-001) (132, 1.22622907161712650000e-001) (133, 5.64553737640380860000e-001) (134, 1.30964085459709170000e-001) (135, 1.58371374011039730000e-001) (136, 6.08359694480896000000e-001) (137, 1.14958211779594420000e-001) (138, -1.87487490475177760000e-002) (139, 3.68576467037200930000e-001) (140, 1.45563304424285890000e-001) (141, 6.40378713607788090000e-001) (142, 1.31886315345764160000e+000) (143, 9.20326352119445800000e-001) (144, 2.72888588905334470000e+000) (145, 2.58522129058837890000e+000) (146, 6.24453425407409670000e-001) (147, 5.07451772689819340000e-001) (148, 2.59972900152206420000e-001) (149, 1.45408165454864500000e+000) (150, 1.41615629196166990000e-001) (151, 2.79205530881881710000e-001) (152, 6.12234950065612790000e-001) (153, 9.22835897654294970000e-003) (154, 4.69298720359802250000e-001) (155, 1.27509379386901860000e+000) (156, 3.92810285091400150000e-001) (157, 4.15047019720077510000e-001) (158, 6.94439589977264400000e-001) (159, 8.50984275341033940000e-001) (160, 4.67101097106933590000e-001) (161, 1.71406313776969910000e-001) (162, 1.54821928590536120000e-002) (163, 2.26488709449768070000e-001) (164, 1.39409795403480530000e-001) (165, 2.44824647903442380000e-001) (166, 4.73307937383651730000e-001) (167, 1.16649138927459720000e+000) (168, 4.52363073825836180000e-001) (169, 8.63731980323791500000e-001) (170, 3.77603620290756230000e-001) (171, 2.04117584228515620000e+000) (172, 5.33010959625244140000e-001) (173, 2.74061679840087890000e+000) (174, 2.71362090110778810000e+000) (175, -2.46057420969009400000e-001) (176, 4.02443975210189820000e-001) (177, 5.86125254631042480000e-002) (178, 4.82257038354873660000e-001) (179, 1.77757322788238530000e+000) (180, 6.09452188014984130000e-001) (181, 1.13499665260314940000e+000) (182, 1.07006156444549560000e+000) (183, 6.20117485523223880000e-001) (184, -3.20727020502090450000e-001) (185, 6.17533087730407710000e-001) (186, 1.30750417709350590000e+000) (187, -3.03806327283382420000e-002) (188, 1.54869988560676570000e-001) (189, 1.73136547207832340000e-001) (190, 1.04497015476226810000e+000) (191, 4.57224875688552860000e-001) (192, 7.43548810482025150000e-001) (193, 1.19952905178070070000e+000) (194, 7.44131863117218020000e-001) (195, 5.38252145051956180000e-002) (196, 2.69644379615783690000e-001) (197, 7.84393966197967530000e-001) (198, -2.07992300391197200000e-001) (199, 8.19970905780792240000e-001) (200, 3.75853329896926880000e-001) (201, 5.19512370228767400000e-002) (202, 2.66487216949462890000e+000) (203, 2.77352070808410640000e+000) (204, 5.98721921443939210000e-001) (205, 5.24068295955657960000e-001) (206, 9.27692472934722900000e-001) (207, 5.07881402969360350000e-001) (208, 5.79054951667785640000e-001) (209, 1.56066879630088810000e-001) (210, 5.17368793487548830000e-001) (211, 4.51901614665985110000e-001) (212, 8.30047965049743650000e-001) (213, 1.64260849356651310000e-001) (214, 4.54618841409683230000e-001) (215, 1.19301564991474150000e-001) (216, 1.25120925903320310000e+000) (217, -3.19937884807586670000e-001) (218, 5.01275777816772460000e-001) (219, 5.32979309558868410000e-001) (220, -1.33940935134887700000e-001) (221, 3.86862725019454960000e-001) (222, 1.10135376453399660000e+000) (223, -1.31401553750038150000e-001) (224, 6.16732835769653320000e-001) (225, 1.41040682792663570000e-001) (226, 6.77895605564117430000e-001) (227, 3.81487399339675900000e-001) (228, 5.17959237098693850000e-001) (229, 1.11537587642669680000e+000) (230, 6.37146010994911190000e-002) (231, 2.59891152381896970000e+000) (232, 2.66919350624084470000e+000) (233, 4.27094668149948120000e-001) (234, 4.55812752246856690000e-001) (235, -1.83929000049829480000e-002) (236, 2.70339846611022950000e-001) (237, -1.98722388595342640000e-002) (238, 1.74307775497436520000e+000) (239, 2.31203973293304440000e-001) (240, 1.62728935480117800000e-001) (241, 6.19139194488525390000e-001) (242, 9.21760559082031250000e-001) (243, 4.40224111080169680000e-001) (244, 7.33112573623657230000e-001) (245, 2.34078064560890200000e-001) (246, 1.63077473640441890000e-001) (247, 3.95008802413940430000e-001) (248, 1.24285781383514400000e+000) (249, 5.28439402580261230000e-001) (250, 8.38677465915679930000e-001) (251, 1.06068119406700130000e-001) (252, 5.68945407867431640000e-001) (253, 4.24282938241958620000e-001) (254, -2.12360650300979610000e-001) (255, 1.02852523326873780000e+000) (256, 8.40521156787872310000e-001) (257, 1.94252297282218930000e-001) (258, 5.96275031566619870000e-001) (259, 1.46723493933677670000e-001) (260, 2.57844018936157230000e+000) (261, 2.76595234870910640000e+000) (262, 3.63563805818557740000e-001) (263, 2.95287251472473140000e-001) (264, 1.24781534075737000000e-001) (265, 4.26643610000610350000e-001) (266, 3.63225668668746950000e-001) (267, 2.27191999554634090000e-001) (268, 9.86691713333129880000e-001) (269, 2.01016679406166080000e-001) (270, 5.82794249057769780000e-001) (271, 1.46283790469169620000e-001) (272, 1.48506537079811100000e-001) (273, 1.11393022537231450000e+000) (274, 3.13313513994216920000e-001) (275, 6.85601711273193360000e-001) (276, 3.33615779876708980000e-001) (277, 1.84618219733238220000e-001) (278, 1.35764256119728090000e-001) (279, -2.10190623998641970000e-001) (280, -2.94592063874006270000e-002) (281, 1.03028845787048340000e+000) (282, 1.97342920303344730000e+000) (283, 4.12163883447647090000e-001) (284, -1.58497914671897890000e-001) (285, 2.06400081515312190000e-001) (286, 6.38184905052185060000e-001) (287, -1.26748740673065190000e-001) (288, 5.25508463382720950000e-001) (289, 2.71364545822143550000e+000) (290, 2.69504189491271970000e+000) (291, 4.60787773132324220000e-001) (292, 4.92029845714569090000e-001) (293, 1.31656324863433840000e+000) (294, 5.68798720836639400000e-001) (295, 1.38421550393104550000e-001) (296, 2.43856102228164670000e-001) (297, 7.14142918586730960000e-001) (298, 2.26119190454483030000e-001) (299, 5.94960987567901610000e-001) (300, 1.36634245514869690000e-001) (301, 1.14067055284976960000e-001) (302, 1.18590235710144040000e+000) (303, 3.70590925216674800000e-001) (304, 8.83512377738952640000e-001) (305, -3.58764022588729860000e-001) (306, 2.35309656709432600000e-002) (307, 1.72892689704895020000e+000) (308, 1.91006684303283690000e+000) (309, 6.82382062077522280000e-002) (310, -2.80243128538131710000e-001) (311, 9.23791974782943730000e-002) (312, 3.71872007846832280000e-001) (313, 1.58831313252449040000e-001) (314, 2.56368726491928100000e-001) (315, 1.60453647375106810000e-001) (316, 9.16550099849700930000e-001) (317, 8.56445133686065670000e-002) (318, 2.69456577301025390000e+000) (319, 2.66312646865844730000e+000) (320, 8.66980552673339840000e-002) (321, 7.68563926219940190000e-001) (322, -1.98928564786911010000e-001) (323, -4.35807138681411740000e-001) (324, 1.42299664020538330000e+000) (325, 1.13646757602691650000e+000) (326, 8.77625942230224610000e-001) (327, 1.24297988414764400000e+000) (328, -1.39865934848785400000e-001) (329, 3.84872078895568850000e-001) (330, 5.67857325077056880000e-001) (331, 4.15061503648757930000e-001) (332, -9.21158939599990840000e-002) (333, 6.43405497074127200000e-001) (334, 1.16476070880889890000e+000) (335, 1.92364871501922610000e-001) (336, 7.74348914623260500000e-001) (337, -3.99138003587722780000e-001) (338, 1.89313054084777830000e-001) (339, 1.53734529018402100000e+000) (340, 6.53995811939239500000e-001) (341, 4.71598923206329350000e-001) (342, 1.61249920725822450000e-001) (343, 1.22214901447296140000e+000) (344, 2.58718281984329220000e-001) (345, 1.65317386388778690000e-001) (346, -1.99171975255012510000e-001) (347, 2.76896142959594730000e+000) (348, 2.66732573509216310000e+000) (349, -6.19325757026672360000e-001) (350, 1.79596352577209470000e+000) (351, 3.89636844396591190000e-001) (352, 5.35041987895965580000e-001) (353, 1.49412915110588070000e-001) (354, 1.63335931301116940000e+000) (355, 5.96656382083892820000e-001) (356, 1.72156989574432370000e-001) (357, -8.56918692588806150000e-002) (358, 2.81892865896224980000e-001) (359, 1.22496986389160160000e+000) (360, 5.84080755710601810000e-001) (361, -7.47856870293617250000e-003) (362, 1.33211255073547360000e+000) (363, 5.79042255878448490000e-001) (364, 2.53518253564834590000e-001) (365, 1.86897182464599610000e+000) (366, 3.60653370618820190000e-001) (367, 3.35511505603790280000e-001) (368, -5.93902766704559330000e-002) (369, 4.94992673397064210000e-001) (370, 5.67031502723693850000e-001) (371, 1.71319043636322020000e+000) (372, -1.23899459838867190000e-001) (373, -3.43479253351688390000e-002) (374, 4.96787190437316890000e-001) (375, 8.02144706249237060000e-001) (376, 2.66810703277587890000e+000) (377, 2.63937783241271970000e+000) (378, 7.44578540325164790000e-002) (379, 7.18801498413085940000e-001) (380, 9.92000341415405270000e-001) (381, 7.52081453800201420000e-001) (382, 2.85950958728790280000e-001) (383, 4.30357813835144040000e-001) (384, 5.13797879219055180000e-001) (385, -5.26765845715999600000e-002) (386, 5.40412545204162600000e-001) (387, 1.54762223362922670000e-001) (388, 3.33534508943557740000e-001) (389, -1.22102707624435420000e-001) (390, 5.91964542865753170000e-001) (391, 1.07335388660430910000e-001) (392, 3.62208038568496700000e-001) (393, 6.50819182395935060000e-001) (394, -2.79005039483308790000e-002) (395, 3.45529943704605100000e-001) (396, 4.52889204025268550000e-001) (397, 1.15527927875518800000e-001) (398, 4.81542289257049560000e-001) (399, 1.46416932344436650000e-001) (400, 1.15417706966400150000e+000) (401, 1.27110436558723450000e-001) (402, 2.06709653139114380000e-001) (403, 8.85015070438385010000e-001) (404, -1.90821334719657900000e-001) (405, 2.59917998313903810000e+000) (406, 2.77002334594726560000e+000) (407, 5.70295989513397220000e-001) (408, 1.10492825508117680000e+000) (409, -2.76871472597122190000e-001) (410, 5.70755958557128910000e-001) (411, 4.80723261833190920000e-001) (412, 1.33665904402732850000e-001) (413, 2.79205799102783200000e-001) (414, 3.38876098394393920000e-001) (415, 5.96697688102722170000e-001) (416, 3.33607703447341920000e-001) (417, 3.73736232519149780000e-001) (418, -1.97033673524856570000e-001) (419, 1.01091909408569340000e+000) (420, -1.42430260777473450000e-001) (421, 5.38197696208953860000e-001) (422, 3.01175355911254880000e-001) (423, 2.37456828355789180000e-001) (424, -2.78813224285840990000e-002) (425, 9.15792584419250490000e-002) (426, 3.38628321886062620000e-001) (427, 2.96844780445098880000e-001) (428, 3.63990306854248050000e-001) (429, 1.18142239749431610000e-001) (430, 7.29901194572448730000e-001) (431, 1.24526366591453550000e-001) (432, 1.33907067775726320000e+000) (433, 1.51868343353271480000e-001) (434, 2.61002588272094730000e+000) (435, 2.70555830001831050000e+000) (436, 5.12324273586273190000e-002) (437, 7.80392289161682130000e-001) (438, 4.91123646497726440000e-001) (439, 1.97920382022857670000e-001) (440, 1.11598360538482670000e+000) (441, 4.02822434902191160000e-001) (442, 4.56036478281021120000e-002) (443, -3.02618648856878280000e-003) (444, 8.69417726993560790000e-001) (445, 4.43586200475692750000e-001) (446, -3.90756577253341670000e-001) (447, 4.01848524808883670000e-001) (448, 6.43293857574462890000e-001) (449, 4.35930788516998290000e-001) (450, 2.19484150409698490000e-001) (451, -8.03368613123893740000e-002) (452, -5.88953308761119840000e-002) (453, 4.58859317004680630000e-002) (454, 5.40132701396942140000e-001) (455, 1.02682948112487790000e+000) (456, 6.87184393405914310000e-001) (457, 4.50974136590957640000e-001) (458, 4.54446643590927120000e-001) (459, 5.64060986042022710000e-001) (460, 8.97845864295959470000e-001) (461, 6.01534247398376460000e-001) (462, 3.07276338338851930000e-001) (463, 2.62231230735778810000e+000) (464, 2.70762729644775390000e+000) (465, 5.35498440265655520000e-001) (466, 5.81790328025817870000e-001) (467, 8.07655081152915950000e-002) (468, 4.96752560138702390000e-002) (469, 6.47332251071929930000e-001) (470, 7.10377871990203860000e-001) (471, 8.25961649417877200000e-001) (472, 1.30815356969833370000e-001) (473, 1.14533990621566770000e-001) (474, -1.25381082296371460000e-001) (475, 1.82579457759857180000e+000) (476, 3.19877058267593380000e-001) (477, 7.24927961826324460000e-001) (478, 2.07763418555259700000e-001) (479, 2.93661683797836300000e-001) (480, 5.51194727420806880000e-001) (481, 8.26198041439056400000e-001) (482, 6.16007447242736820000e-001) (483, -1.59418925642967220000e-001) (484, 7.34123438596725460000e-002) (485, 4.73786354064941410000e-001) (486, 1.62174534797668460000e+000) (487, -2.98003274947404860000e-002) (488, 1.14919555187225340000e+000) (489, 1.06627233326435090000e-001) (490, 2.14398312568664550000e+000) (491, -4.06443268060684200000e-001) (492, 2.71689248085021970000e+000) (493, 2.76811909675598140000e+000) (494, -1.70213863253593440000e-001) (495, 5.25664269924163820000e-001) (496, 1.61009728908538820000e-001) (497, 1.32089936733245850000e+000) (498, 9.32906806468963620000e-001) (499, 4.05278861522674560000e-001) (500, 2.04875335097312930000e-001) (501, 6.05918824672698970000e-001) (502, 5.42798340320587160000e-001) (503, -2.90622025728225710000e-001) (504, 1.38862371444702150000e+000) (505, 5.05991816520690920000e-001) (506, 6.74091756343841550000e-001) (507, 7.52318918704986570000e-001) (508, 1.53978452086448670000e-001) (509, 7.91091993451118470000e-002) (510, 5.80059468746185300000e-001) (511, 2.49490469694137570000e-001) (512, 4.59690898656845090000e-001) (513, 5.16048431396484380000e-001) (514, 4.94159579277038570000e-001) (515, 4.89975214004516600000e-001) (516, 1.15258157253265380000e+000) (517, 7.30680599808692930000e-002) (518, -6.93858414888381960000e-002) (519, 4.98962521553039550000e-001) (520, 5.02041220664978030000e-001) (521, 2.72056055068969730000e+000) (522, 2.75812149047851560000e+000) (523, -2.10955470800399780000e-001) (524, 6.38699173927307130000e-001) (525, -3.61005783081054690000e-001) (526, 5.63511922955513000000e-002) (527, 1.48144319653511050000e-001) (528, 5.11449575424194340000e-001) (529, 7.10878551006317140000e-001) (530, 5.03980293869972230000e-002) (531, 2.16133803129196170000e-001) (532, 1.95356404781341550000e+000) (533, 2.98861742019653320000e-001) (534, -1.39275304973125460000e-002) (535, -4.95382308959960940000e-001) (536, 1.38585627079010010000e+000) (537, 7.49016880989074710000e-001) (538, 7.10414230823516850000e-001) (539, 4.80014830827713010000e-001) (540, 3.29765915870666500000e-001) (541, 1.22017025947570800000e+000) (542, 2.03932940959930420000e-001) (543, 1.05502331256866460000e+000) (544, 2.42772772908210750000e-001) (545, 1.29842981696128850000e-001) (546, 1.58464685082435610000e-001) (547, 1.56192326545715330000e+000) (548, 5.81098556518554690000e-001) (549, 1.02232120931148530000e-001) (550, 2.61531162261962890000e+000) (551, 2.69972944259643550000e+000) (552, 1.15719759464263920000e+000) (553, -2.61405289173126220000e-001) (554, 3.60426306724548340000e-001) (555, 4.17739838361740110000e-001) (556, 1.52366623282432560000e-001) (557, 2.10104465484619140000e-001) (558, 9.41286206245422360000e-001) (559, 8.25530588626861570000e-001) (560, -5.14890812337398530000e-002) (561, -2.46522113680839540000e-001) (562, 6.14587128162384030000e-001) (563, 4.83842194080352780000e-001) (564, 6.72806799411773680000e-001) (565, 6.35857939720153810000e-001) (566, 8.62042605876922610000e-002) (567, 1.19800472259521480000e+000) (568, 4.18177276849746700000e-001) (569, 1.62847101688385010000e-001) (570, 1.43622443079948430000e-001) (571, -1.10288858413696290000e-002) (572, 1.38082873821258540000e+000) (573, 6.53711408376693730000e-002) (574, 2.13577717542648320000e-001) (575, 4.30020421743392940000e-001) (576, 2.13492244482040410000e-001) (577, 5.03909468650817870000e-001) (578, 5.79986572265625000000e-001) (579, 2.70416045188903810000e+000) (580, 2.70732212066650390000e+000) (581, 1.96645185351371770000e-001) (582, 5.49597084522247310000e-001) (583, 1.93815484642982480000e-001) (584, 1.13424015045166020000e+000) (585, 5.38742780685424800000e-001) (586, 4.10382479429245000000e-001) (587, 7.83039033412933350000e-001) (588, 4.46763724088668820000e-001) (589, 1.77331864833831790000e-001) (590, 1.44226118922233580000e-001) (591, 1.56092450022697450000e-001) (592, 6.21973812580108640000e-001) (593, 4.28269088268280030000e-001) (594, 9.60642516613006590000e-001) (595, -2.75795683264732360000e-002) (596, 4.30345207452774050000e-001) (597, 3.68187755346298220000e-001) (598, 4.95238602161407470000e-001) (599, 1.17702615261077880000e+000) (600, 1.05335794389247890000e-001) (601, 3.38275194168090820000e-001) (602, 1.37934565544128420000e+000) (603, 2.56685197353363040000e-001) (604, 6.15328133106231690000e-001) (605, 1.51090130209922790000e-001) (606, 4.88184541463851930000e-001) (607, 4.53514397144317630000e-001) (608, 2.76135039329528810000e+000) (609, 2.65121865272521970000e+000) (610, 1.46462544798851010000e-001) (611, 5.83294391632080080000e-001) (612, 9.85509753227233890000e-002) (613, 1.97123840451240540000e-001) (614, 1.61757931113243100000e-001) (615, -9.27573069930076600000e-002) (616, 8.84819984436035160000e-001) (617, 1.50134786963462830000e-001) (618, 5.63875973224639890000e-001) (619, 6.04122817516326900000e-001) (620, 7.00750052928924560000e-002) (621, 6.15028798580169680000e-001) (622, 1.96685850620269780000e-001) (623, -9.14944559335708620000e-002) (624, 1.09301519393920900000e+000) (625, 7.50144660472869870000e-001) (626, 1.96163624525070190000e-001) (627, 2.15479612350463870000e-001) (628, 1.01295053958892820000e+000) (629, 7.83976316452026370000e-001) (630, 8.31147193908691410000e-001) (631, 1.45607754588127140000e-001) (632, 3.57302904129028320000e-001) (633, 4.13609653711318970000e-001) (634, 7.99249768257141110000e-001) (635, 5.05903899669647220000e-001) (636, 5.16599893569946290000e-001) (637, 2.60313510894775390000e+000) (638, 2.58061933517456050000e+000) (639, -1.17987498641014100000e-001) (640, 6.50014519691467290000e-001) (641, 4.21487092971801760000e-001) (642, -8.10911208391189580000e-002) (643, 1.44334542751312260000e+000) (644, 5.04774972796440120000e-002) (645, 8.62669497728347780000e-002) (646, 5.70462167263031010000e-001) (647, 1.44401371479034420000e+000) (648, 1.11197590827941890000e+000) (649, 8.17129075527191160000e-001) (650, 9.60396289825439450000e-001) (651, 1.65543239563703540000e-002) (652, 6.17261886596679690000e-001) (653, 2.96115279197692870000e-001) (654, 1.11784660816192630000e+000) (655, 7.27800309658050540000e-001) (656, 1.61855950951576230000e-001) (657, 1.56656280159950260000e-002) (658, 7.70664036273956300000e-001) (659, 8.47611010074615480000e-001) (660, 4.82502669095993040000e-001) (661, 1.87079763412475590000e+000) (662, 4.41649645566940310000e-001) (663, -1.95563267916440960000e-002) (664, 4.36671525239944460000e-001) (665, 4.47572097182273860000e-002) (666, 2.62913608551025390000e+000) (667, 2.65208530426025390000e+000) (668, 8.89425575733184810000e-001) (669, 1.46950078010559080000e+000) (670, 7.63504266738891600000e-001) (671, 1.02189552783966060000e+000) (672, 1.76148340106010440000e-002) (673, 1.00497949123382570000e+000) (674, 6.00916564464569090000e-001) (675, -6.23407401144504550000e-002) (676, 3.68382513523101810000e-001) (677, 3.13431650400161740000e-001) (678, 1.65220089256763460000e-002) (679, -1.00101858377456670000e-001) (680, 2.58814722299575810000e-001) (681, 2.69594937562942500000e-001) (682, 7.98348307609558110000e-001) (683, -1.65068760514259340000e-001) (684, 2.38077014684677120000e-001) (685, 1.15654623508453370000e+000) (686, 5.02243399620056150000e-001) (687, 2.64569520950317380000e-002) (688, 4.37321186065673830000e-001) (689, 2.56140291690826420000e-001) (690, 1.47189795970916750000e-001) (691, 1.18719732761383060000e+000) (692, 1.25871494412422180000e-001) (693, 5.65861463546752930000e-001) (694, 5.56939542293548580000e-001) (695, 2.59282636642456050000e+000) (696, 2.60463666915893550000e+000) (697, 1.27815842628479000000e+000) (698, 7.19064414501190190000e-001) (699, 5.32791316509246830000e-001) (700, 2.24523305892944340000e-001) (701, 5.76337158679962160000e-001) (702, -1.16205886006355290000e-001) (703, 3.11052024364471440000e-001) (704, 5.52393674850463870000e-001) (705, 5.76374650001525880000e-001) (706, 1.72570392489433290000e-001) (707, 4.39638495445251460000e-001) (708, 4.43303138017654420000e-001) (709, 1.93415731191635130000e-001) (710, 3.72689723968505860000e-001) (711, 6.93141639232635500000e-001) (712, 1.01999843120574950000e+000) (713, 8.67668747901916500000e-001) (714, 4.75362241268157960000e-001) (715, -6.03159442543983460000e-002) (716, 7.70473837852478030000e-001) (717, 3.45214545726776120000e-001) (718, 4.31223124265670780000e-001) (719, 2.94403582811355590000e-001) (720, 3.63851279020309450000e-001) (721, 2.09521666169166560000e-001) (722, 4.29913967847824100000e-001) (723, 1.24345563352108000000e-001) (724, 2.60773706436157230000e+000) (725, 2.59263706207275390000e+000) (726, 7.57055819034576420000e-001) (727, 6.08381927013397220000e-001) (728, 7.49963581562042240000e-001) (729, 4.05985653400421140000e-001) (730, 1.83951109647750850000e-001) (731, 4.16361451148986820000e-001) (732, 5.49607127904891970000e-002) (733, -3.26319374144077300000e-002) (734, 1.68141379952430730000e-001) (735, 4.48367595672607420000e-001) (736, 3.81554812192916870000e-001) (737, -1.58869743347167970000e-001) (738, 1.12994456291198730000e+000) (739, 7.83873796463012700000e-001) (740, 3.99444788694381710000e-001) (741, -1.52877882122993470000e-001) (742, 1.25305235385894780000e-001) (743, 1.96994289755821230000e-001) (744, 2.85432577133178710000e-001) (745, 3.95218014717102050000e-001) (746, -2.45093733072280880000e-001) (747, 8.91359597444534300000e-002) (748, 5.28633236885070800000e-001) (749, 3.23164165019989010000e-001) (750, 6.72156929969787600000e-001) (751, 7.86474406719207760000e-001) (752, 2.27018564939498900000e-001) (753, 2.69864916801452640000e+000) (754, 2.61247968673706050000e+000) (755, 8.59549045562744140000e-001) (756, 6.19775116443634030000e-001) (757, 3.60222935676574710000e-001) (758, 7.60936439037323000000e-001) (759, 8.51918995380401610000e-001) (760, 1.63858398795127870000e-001) (761, 3.79128068685531620000e-001) (762, 2.42975234985351560000e-001) (763, 6.95171058177948000000e-001) (764, 2.56412059068679810000e-001) (765, 6.78394496440887450000e-001) (766, 2.28401541709899900000e-001) (767, 6.42521739006042480000e-001) (768, 6.47313594818115230000e-002) (769, 1.21575713157653810000e+000) (770, 8.19764137268066410000e-001) (771, 5.76425552368164060000e-001) (772, 6.29746615886688230000e-001) (773, 4.60043430328369140000e-001) (774, 8.70042562484741210000e-001) (775, 5.38408219814300540000e-001) (776, 2.12342739105224610000e-001) (777, 5.22308886051177980000e-001) (778, 5.27746379375457760000e-001) (779, 1.73854529857635500000e-001) (780, 7.88982808589935300000e-001) (781, 2.14938974380493160000e+000) (782, 2.72554111480712890000e+000) (783, 2.67964887619018550000e+000) (784, 5.38092434406280520000e-001) (785, 6.40632808208465580000e-001) (786, 7.56993114948272710000e-001) (787, 7.89662227034568790000e-002) (788, 3.83242040872573850000e-001) (789, 6.22922837734222410000e-001) (790, 5.92358291149139400000e-001) (791, 4.49841439723968510000e-001) (792, -2.95287996530532840000e-001) (793, 6.89178645610809330000e-001) (794, 2.20091223716735840000e-001) (795, 3.21520924568176270000e-001) (796, 2.56928503513336180000e-001) (797, 4.72034007310867310000e-001) (798, -4.03623104095458980000e-001) (799, 2.92850017547607420000e-001) (800, 9.70500051975250240000e-001) (801, 6.93257153034210210000e-001) (802, 4.99781906604766850000e-001) (803, 2.03638702630996700000e-001) (804, 5.08661806583404540000e-001) (805, 1.10939748585224150000e-001) (806, 1.00023460388183590000e+000) (807, 2.85837918519973750000e-001) (808, 4.55989062786102290000e-001) (809, 6.47622108459472660000e-001) (810, 2.96036779880523680000e-001) (811, 2.66798496246337890000e+000) (812, 2.57895898818969730000e+000) (813, 2.59653711318969730000e+000) (814, 2.61291909217834470000e+000) (815, 2.69461464881896970000e+000) (816, 2.74242949485778810000e+000) (817, 2.76391386985778810000e+000) (818, 2.77372217178344730000e+000) (819, 2.71437788009643550000e+000) (820, 2.70359301567077640000e+000) (821, 2.63822412490844730000e+000) (822, 2.61997461318969730000e+000) (823, 2.74033594131469730000e+000) (824, 2.61474394798278810000e+000) (825, 2.68806552886962890000e+000) (826, 2.66939496994018550000e+000) (827, 2.74874663352966310000e+000) (828, 2.65895175933837890000e+000) (829, 2.72878813743591310000e+000) (830, 2.68230390548706050000e+000) (831, 2.73960351943969730000e+000) (832, 2.69334506988525390000e+000) (833, 2.71760034561157230000e+000) (834, 2.70119428634643550000e+000) (835, 2.74292993545532230000e+000) (836, 2.65529584884643550000e+000) (837, 2.66008090972900390000e+000) (838, 2.75633931159973140000e+000) (839, 2.62701201438903810000e+000) (840, 2.76272368431091310000e+000) (841, 1.53569686412811280000e+000) (0, -4.00497531890869140000e+000) (1, -4.05881452560424800000e+000) (2, -4.08377790451049800000e+000) (3, -4.08545017242431640000e+000) (4, -4.04263401031494140000e+000) (5, -4.00879621505737300000e+000) (6, -4.12420749664306640000e+000) (7, -4.05515861511230470000e+000) (8, -3.97426009178161620000e+000) (9, -3.95091676712036130000e+000) (10, -4.11050510406494140000e+000) (11, -3.98959016799926760000e+000) (12, -4.09842634201049800000e+000) (13, -3.97368669509887700000e+000) (14, -4.12280368804931640000e+000) (15, -4.11036443710327150000e+000) (16, -4.06420993804931640000e+000) (17, -4.08833694458007810000e+000) (18, -3.95324802398681640000e+000) (19, -4.06413650512695310000e+000) (20, -3.96294474601745610000e+000) (21, -4.02748489379882810000e+000) (22, -4.08440637588500980000e+000) (23, -4.06167697906494140000e+000) (24, -4.08548069000244140000e+000) (25, -4.04812097549438480000e+000) (26, -4.05540847778320310000e+000) (27, -4.05584812164306640000e+000) (28, -3.96393275260925290000e+000) (29, -4.08287429809570310000e+000) (30, 3.68879228830337520000e-001) (31, -3.63680608570575710000e-002) (32, 2.58925974369049070000e-001) (33, 2.80923217535018920000e-001) (34, -6.64335787296295170000e-001) (35, 1.88468560576438900000e-001) (36, 4.63019818067550660000e-001) (37, 3.78283768892288210000e-001) (38, -1.39185190200805660000e-001) (39, 3.18806767463684080000e-001) (40, 1.30278244614601140000e-001) (41, 3.28762859106063840000e-001) (42, 1.01701819896698000000e+000) (43, 5.84292709827423100000e-002) (44, 4.42765533924102780000e-001) (45, 1.27053380012512210000e-001) (46, -7.81210586428642270000e-002) (47, 2.92849898338317870000e-001) (48, 1.01386082172393800000e+000) (49, 2.39683464169502260000e-001) (50, -1.88295803964138030000e-002) (51, -1.57178521156311040000e-001) (52, 5.00892521813511850000e-003) (53, 5.20647466182708740000e-001) (54, -7.30740278959274290000e-002) (55, -1.24763918574899440000e-003) (56, -2.08256438374519350000e-001) (57, -4.14292716979980470000e+000) (58, -4.07096624374389650000e+000) (59, -1.74102878570556640000e+000) (60, -1.31093338131904600000e-001) (61, 1.78363576531410220000e-001) (62, 1.44834622740745540000e-001) (63, 6.56756898388266560000e-003) (64, -8.26451182365417480000e-002) (65, 1.29782438278198240000e-001) (66, 1.27037808299064640000e-001) (67, 1.37006327509880070000e-001) (68, 1.41839608550071720000e-001) (69, -8.90389084815979000000e-002) (70, 5.38630038499832150000e-002) (71, -9.29836153984069820000e-001) (72, 1.98402866721153260000e-001) (73, 3.07264000177383420000e-001) (74, 8.89647472649812700000e-003) (75, 5.25880381464958190000e-002) (76, 5.66884934902191160000e-001) (77, -1.80631846189498900000e-001) (78, 1.72803744673728940000e-001) (79, 5.44986367225646970000e-001) (80, 2.63549059629440310000e-001) (81, -4.36622411012649540000e-001) (82, -1.22243925929069520000e-001) (83, 3.36629241704940800000e-001) (84, -1.22061714529991150000e-001) (85, -2.07878187298774720000e-001) (86, -4.08663415908813480000e+000) (87, -4.14002799987792970000e+000) (88, 1.26906871795654300000e-001) (89, -2.08090037107467650000e-001) (90, 2.78628796339035030000e-001) (91, 4.58019942045211790000e-001) (92, 3.85022252798080440000e-001) (93, 1.30703425407409670000e+000) (94, 7.89443552494049070000e-001) (95, 9.17752027511596680000e-001) (96, 7.88834214210510250000e-001) (97, 3.95513266324996950000e-001) (98, 4.27490711212158200000e-001) (99, 1.34925973415374760000e+000) (100, 2.52426296472549440000e-001) (101, 9.12690386176109310000e-002) (102, -5.71834214497357610000e-004) (103, 8.14686954021453860000e-001) (104, 1.23043157160282140000e-001) (105, -1.69631745666265490000e-002) (106, 7.73168265819549560000e-001) (107, 3.46050530672073360000e-001) (108, 7.23424196243286130000e-001) (109, 1.28412554040551190000e-002) (110, 5.25159180164337160000e-001) (111, 2.58699536323547360000e-001) (112, 2.16881796717643740000e-001) (113, 3.59442412853240970000e-001) (114, -7.38251134753227230000e-002) (115, -4.13944816589355470000e+000) (116, -3.97015142440795900000e+000) (117, 5.98135113716125490000e-001) (118, 1.85515791177749630000e-001) (119, 6.91856205463409420000e-001) (120, 3.60490739345550540000e-001) (121, 9.07936930656433110000e-001) (122, 2.08858788013458250000e-001) (123, 2.45087847113609310000e-001) (124, -2.54186809062957760000e-001) (125, 1.94330608844757080000e+000) (126, 3.57403367757797240000e-001) (127, -2.34345152974128720000e-001) (128, 2.04471319913864140000e-001) (129, 7.11279809474945070000e-001) (130, 2.77893155813217160000e-001) (131, 1.22404366731643680000e-001) (132, 6.47200286388397220000e-001) (133, 1.49012610316276550000e-001) (134, 6.63344025611877440000e-001) (135, 3.87208580970764160000e-001) (136, -6.44870055839419360000e-003) (137, 4.56129699945449830000e-001) (138, 9.02502000331878660000e-001) (139, 2.50271886587142940000e-001) (140, 3.27327370643615720000e-001) (141, 1.99078004807233810000e-002) (142, -7.32215523719787600000e-001) (143, -2.72842764854431150000e-001) (144, -3.95521879196166990000e+000) (145, -4.07915735244750980000e+000) (146, 1.74211978912353520000e-001) (147, 7.86049962043762210000e-002) (148, 5.55237889289855960000e-001) (149, -3.50151389837265010000e-001) (150, 1.82280147075653080000e+000) (151, 4.76829409599304200000e-001) (152, 2.69768714904785160000e-001) (153, 5.64311861991882320000e-001) (154, 2.21262440085411070000e-001) (155, -1.32731003686785700000e-002) (156, 6.51712954044342040000e-001) (157, 5.54240405559539790000e-001) (158, 6.65000677108764650000e-002) (159, 4.12151783704757690000e-001) (160, 3.30149918794631960000e-001) (161, 1.26990723609924320000e+000) (162, 9.86099004745483400000e-001) (163, 4.86387521028518680000e-001) (164, 5.09243965148925780000e-001) (165, 5.21263360977172850000e-001) (166, 3.54509860277175900000e-001) (167, -3.56311917304992680000e-001) (168, 1.68235942721366880000e-001) (169, -4.71364706754684450000e-002) (170, 3.30508381128311160000e-001) (171, -1.06252884864807130000e+000) (172, -2.81189233064651490000e-002) (173, -4.06948328018188480000e+000) (174, -4.05015373229980470000e+000) (175, 1.19894504547119140000e+000) (176, 1.49790465831756590000e-001) (177, 8.85899782180786130000e-001) (178, 3.10443162918090820000e-001) (179, -6.01903080940246580000e-001) (180, 2.43668183684349060000e-001) (181, -1.71021163463592530000e-001) (182, -6.50832056999206540000e-003) (183, 1.05496957898139950000e-001) (184, 2.03901815414428710000e+000) (185, 3.89761626720428470000e-001) (186, 4.83555942773818970000e-001) (187, 1.06679975986480710000e+000) (188, 6.17529034614562990000e-001) (189, 6.72738909721374510000e-001) (190, 2.40020409226417540000e-001) (191, 4.94197726249694820000e-001) (192, 2.03471705317497250000e-001) (193, -3.02836358547210690000e-001) (194, -6.68025165796279910000e-002) (195, 7.56679177284240720000e-001) (196, 3.75216424465179440000e-001) (197, 7.63113200664520260000e-002) (198, 1.34109735488891600000e+000) (199, -1.11845247447490690000e-001) (200, 1.16180278360843660000e-001) (201, 5.07146000862121580000e-001) (202, -4.00250339508056640000e+000) (203, -4.07815027236938480000e+000) (204, -8.62558111548423770000e-002) (205, 1.52870923280715940000e-001) (206, -1.03264920413494110000e-001) (207, 2.11752787232398990000e-001) (208, 6.17436707019805910000e-001) (209, 3.33832293748855590000e-001) (210, 4.60946619510650630000e-001) (211, 1.88814133405685420000e-001) (212, -4.89613786339759830000e-002) (213, 6.28677785396575930000e-001) (214, 1.61855295300483700000e-001) (215, 7.06906616687774660000e-001) (216, 8.51567804813385010000e-001) (217, 1.89749932289123540000e+000) (218, 3.38424891233444210000e-001) (219, 5.43204247951507570000e-001) (220, 1.10033106803894040000e+000) (221, 4.02871489524841310000e-001) (222, 1.02111861109733580000e-001) (223, 1.48378479480743410000e+000) (224, -2.77710855007171630000e-002) (225, 8.65012466907501220000e-001) (226, 4.73326519131660460000e-002) (227, 1.29576653242111210000e-001) (228, 2.04713761806488040000e-001) (229, -3.10508757829666140000e-001) (230, 3.79516035318374630000e-001) (231, -4.05067253112792970000e+000) (232, -4.09566116333007810000e+000) (233, 1.81927919387817380000e-001) (234, 1.15276239812374110000e-001) (235, 7.63743042945861820000e-001) (236, 3.25206696987152100000e-001) (237, 8.71435880661010740000e-001) (238, 3.47372144460678100000e-001) (239, 7.03391253948211670000e-001) (240, 8.82572710514068600000e-001) (241, 2.38480493426322940000e-001) (242, 7.65793025493621830000e-001) (243, 6.98313474655151370000e-001) (244, 5.42816638946533200000e-001) (245, 1.12617576122283940000e+000) (246, 6.65281236171722410000e-001) (247, 7.25353062152862550000e-001) (248, -1.77985101938247680000e-001) (249, 3.19290161132812500000e-001) (250, 3.75293165445327760000e-001) (251, 4.64734822511672970000e-001) (252, 1.20786774158477780000e+000) (253, 1.38569593429565430000e-001) (254, 1.33020257949829100000e+000) (255, -1.21210582554340360000e-001) (256, -1.04043133556842800000e-001) (257, 4.52100425958633420000e-001) (258, 6.09913235530257230000e-003) (259, 3.92659574747085570000e-001) (260, -3.95199060440063480000e+000) (261, -3.98450040817260740000e+000) (262, 4.99087303876876830000e-001) (263, 4.39300954341888430000e-001) (264, 3.97122889757156370000e-001) (265, 3.02576005458831790000e-001) (266, 3.63282799720764160000e-001) (267, 5.24060964584350590000e-001) (268, 6.56964659690856930000e-001) (269, 1.28177511692047120000e+000) (270, 4.97490912675857540000e-001) (271, 5.74812173843383790000e-001) (272, 9.43963229656219480000e-001) (273, 8.03230762481689450000e-001) (274, 1.69669258594512940000e+000) (275, 6.28953874111175540000e-001) (276, 6.83621585369110110000e-001) (277, 1.35699546337127690000e+000) (278, 1.84620392322540280000e+000) (279, 1.79240846633911130000e+000) (280, 7.81346321105957030000e-001) (281, 3.29186916351318360000e-001) (282, -9.06369149684906010000e-001) (283, 4.59671884775161740000e-001) (284, 1.20020031929016110000e+000) (285, 4.82725173234939580000e-001) (286, 6.20890185236930850000e-002) (287, 7.79755651950836180000e-001) (288, 7.09237456321716310000e-002) (289, -4.07448816299438480000e+000) (290, -4.03718376159667970000e+000) (291, 4.16007637977600100000e-001) (292, 3.22688817977905270000e-002) (293, -2.73241490125656130000e-001) (294, 1.65953785181045530000e-001) (295, 5.35770714282989500000e-001) (296, 1.08277642726898190000e+000) (297, 1.68142974376678470000e-001) (298, 7.13534891605377200000e-001) (299, 3.35177749395370480000e-001) (300, 2.06126642227172850000e+000) (301, 8.61926078796386720000e-001) (302, 5.69609999656677250000e-001) (303, 7.62167990207672120000e-001) (304, 1.24312162399291990000e+000) (305, 1.22271442413330080000e+000) (306, 1.22922253608703610000e+000) (307, 1.20389354228973390000e+000) (308, 9.24461007118225100000e-001) (309, 8.64424586296081540000e-001) (310, 1.22471582889556880000e+000) (311, 4.98411297798156740000e-001) (312, 5.67784845829010010000e-001) (313, 5.50776720046997070000e-001) (314, 6.86896681785583500000e-001) (315, 6.80005490779876710000e-001) (316, -1.03601962327957150000e-001) (317, 8.24636220932006840000e-001) (318, -4.12716150283813480000e+000) (319, -3.94995284080505370000e+000) (320, 6.31361305713653560000e-001) (321, 3.95315885543823240000e-002) (322, 1.12894713878631590000e+000) (323, 1.26638638973236080000e+000) (324, -2.57078409194946290000e-001) (325, 5.49346208572387700000e-001) (326, 8.91233682632446290000e-001) (327, 3.14886718988418580000e-001) (328, 2.02382349967956540000e+000) (329, 1.50995278358459470000e+000) (330, 5.40219664573669430000e-001) (331, 1.34075212478637700000e+000) (332, 1.34642946720123290000e+000) (333, 1.31413650512695310000e+000) (334, 4.75877135992050170000e-001) (335, 1.63667559623718260000e+000) (336, 1.53504145145416260000e+000) (337, 1.21834409236907960000e+000) (338, 5.06070852279663090000e-001) (339, 4.77640032768249510000e-002) (340, 4.49320912361145020000e-001) (341, 5.14871299266815190000e-001) (342, 5.57378292083740230000e-001) (343, -3.26111465692520140000e-001) (344, 4.53845053911209110000e-001) (345, 3.56987893581390380000e-001) (346, 1.19553852081298830000e+000) (347, -4.05685520172119140000e+000) (348, -3.96741461753845210000e+000) (349, 1.64653337001800540000e+000) (350, -1.05181074142456050000e+000) (351, 5.57966589927673340000e-001) (352, 8.62822473049163820000e-001) (353, 1.40403938293457030000e+000) (354, 1.28479254245758060000e+000) (355, 3.61151963472366330000e-001) (356, 5.05125820636749270000e-001) (357, 1.13754165172576900000e+000) (358, 6.62492811679840090000e-001) (359, 9.00362133979797360000e-001) (360, 1.36826062202453610000e+000) (361, 1.13568198680877690000e+000) (362, 3.37535500526428220000e-001) (363, 1.06606292724609370000e+000) (364, 1.39422571659088130000e+000) (365, 1.05906119570136070000e-002) (366, 1.33270108699798580000e+000) (367, 7.86613762378692630000e-001) (368, 1.22341573238372800000e+000) (369, 4.56283539533615110000e-001) (370, 4.23865407705307010000e-001) (371, -5.56219875812530520000e-001) (372, 1.02423059940338130000e+000) (373, 1.14177513122558590000e+000) (374, 5.21504431962966920000e-002) (375, 1.68983653187751770000e-001) (376, -4.14312839508056640000e+000) (377, -4.06628513336181640000e+000) (378, 1.05371057987213130000e+000) (379, -5.74554316699504850000e-002) (380, -5.53167499601840970000e-002) (381, 2.90466472506523130000e-002) (382, 9.69198644161224370000e-001) (383, 1.20868098735809330000e+000) (384, 2.68206477165222170000e-001) (385, 1.35505819320678710000e+000) (386, 2.15893507003784180000e+000) (387, 1.56362581253051760000e+000) (388, 7.41654694080352780000e-001) (389, 1.58613598346710210000e+000) (390, 9.07736599445343020000e-001) (391, 1.73715448379516600000e+000) (392, 8.53330433368682860000e-001) (393, 9.20397758483886720000e-001) (394, 1.94183540344238280000e+000) (395, 8.33112418651580810000e-001) (396, 9.90148127079010010000e-001) (397, 1.24625957012176510000e+000) (398, 3.82831811904907230000e-001) (399, 9.33470129966735840000e-001) (400, -4.49827075004577640000e-001) (401, 4.68197941780090330000e-001) (402, 2.57075607776641850000e-001) (403, -1.90159887075424190000e-001) (404, 1.08958053588867190000e+000) (405, -4.09771203994750980000e+000) (406, -3.99898290634155270000e+000) (407, 6.13344609737396240000e-002) (408, -3.86229068040847780000e-001) (409, 1.47073602676391600000e+000) (410, 2.61504381895065310000e-001) (411, 4.10171449184417720000e-001) (412, 6.55351579189300540000e-001) (413, 8.76497685909271240000e-001) (414, 8.39098989963531490000e-001) (415, 1.01060271263122560000e+000) (416, 1.20335114002227780000e+000) (417, 1.51334404945373540000e+000) (418, 1.58323156833648680000e+000) (419, 3.78400981426239010000e-001) (420, 1.70776212215423580000e+000) (421, 4.86481755971908570000e-001) (422, 1.84766888618469240000e+000) (423, 1.67768108844757080000e+000) (424, 9.88584995269775390000e-001) (425, 1.05844891071319580000e+000) (426, 8.22045385837554930000e-001) (427, 1.01650214195251460000e+000) (428, 5.50724864006042480000e-001) (429, 5.87773561477661130000e-001) (430, 2.58343219757080080000e-001) (431, 1.73594319820404050000e+000) (432, -5.79973816871643070000e-001) (433, 3.68414044380187990000e-001) (434, -4.05114221572875980000e+000) (435, -4.13280725479125980000e+000) (436, 8.61265599727630620000e-001) (437, -3.23384329676628110000e-002) (438, 1.42965748906135560000e-001) (439, 5.72080433368682860000e-001) (440, -1.75304904580116270000e-001) (441, 3.83513510227203370000e-001) (442, 1.10946834087371830000e+000) (443, 1.40748476982116700000e+000) (444, 5.43517410755157470000e-001) (445, 7.28788554668426510000e-001) (446, 1.76074171066284180000e+000) (447, 1.02213752269744870000e+000) (448, 1.42169165611267090000e+000) (449, 1.46890735626220700000e+000) (450, 1.40727794170379640000e+000) (451, 1.19119393825531010000e+000) (452, 1.27959966659545900000e+000) (453, 1.25082814693450930000e+000) (454, 1.97136890888214110000e+000) (455, 5.58311402797698970000e-001) (456, 2.78096854686737060000e-001) (457, 7.53861665725708010000e-001) (458, 1.05873179435729980000e+000) (459, 5.80087244510650630000e-001) (460, 4.71666567027568820000e-002) (461, 1.15360118448734280000e-001) (462, 7.68350780010223390000e-001) (463, -3.95267415046691890000e+000) (464, -4.10554885864257810000e+000) (465, 2.52382487058639530000e-001) (466, 1.45141081884503360000e-003) (467, 1.02881920337677000000e+000) (468, 8.05966615676879880000e-001) (469, 1.20856925845146180000e-001) (470, -8.90688747167587280000e-002) (471, -2.45048373937606810000e-001) (472, 4.87110823392868040000e-001) (473, 8.68301868438720700000e-001) (474, 1.88894855976104740000e+000) (475, 6.98362231254577640000e-001) (476, 9.30844902992248540000e-001) (477, 1.30068480968475340000e+000) (478, 7.75292098522186280000e-001) (479, 8.84776651859283450000e-001) (480, 1.13675975799560550000e+000) (481, 7.91431069374084470000e-001) (482, 5.27089715003967290000e-001) (483, 1.11883985996246340000e+000) (484, 8.38093876838684080000e-001) (485, 5.06222128868103030000e-001) (486, 1.12691223621368410000e+000) (487, 1.59044277667999270000e+000) (488, -2.58876979351043700000e-002) (489, 8.00334155559539790000e-001) (490, -1.39251172542572020000e+000) (491, 1.64415824413299560000e+000) (492, -3.99825763702392580000e+000) (493, -4.12376785278320310000e+000) (494, 1.25699281692504880000e+000) (495, 1.17894105613231660000e-001) (496, 5.21016955375671390000e-001) (497, -3.89935791492462160000e-001) (498, -2.93703917413949970000e-002) (499, 1.30010664463043210000e+000) (500, 8.79301607608795170000e-001) (501, 3.31663608551025390000e-001) (502, 1.15792226791381840000e+000) (503, 1.18061816692352290000e+000) (504, 1.01922106742858890000e+000) (505, 1.45905041694641110000e+000) (506, 8.32578778266906740000e-001) (507, 1.19206607341766360000e+000) (508, 9.96481359004974370000e-001) (509, 1.37770795822143550000e+000) (510, 6.94031536579132080000e-001) (511, 1.47524225711822510000e+000) (512, 1.37142729759216310000e+000) (513, 6.00016415119171140000e-001) (514, 1.37112140655517580000e+000) (515, 6.52060151100158690000e-001) (516, 8.18099901080131530000e-002) (517, 9.25801873207092290000e-001) (518, 7.85521745681762700000e-001) (519, 1.32942304015159610000e-001) (520, 4.44822341203689580000e-001) (521, -4.11439895629882810000e+000) (522, -4.10071516036987300000e+000) (523, 1.04202079772949220000e+000) (524, 1.22134080156683920000e-002) (525, 1.17375135421752930000e+000) (526, 7.40996718406677250000e-001) (527, 7.76881337165832520000e-001) (528, 3.72489495202898980000e-003) (529, -2.78636235743761060000e-002) (530, 7.34253704547882080000e-001) (531, 5.72550117969512940000e-001) (532, 6.57479643821716310000e-001) (533, 1.38329923152923580000e+000) (534, 1.14521217346191410000e+000) (535, 1.74997889995574950000e+000) (536, 7.97196865081787110000e-001) (537, 7.83501088619232180000e-001) (538, 7.14612543582916260000e-001) (539, 8.78521084785461430000e-001) (540, 1.78423762321472170000e+000) (541, -1.50534259155392650000e-002) (542, 6.38579487800598140000e-001) (543, -1.08244627714157100000e-001) (544, 5.77288568019866940000e-001) (545, 5.86667180061340330000e-001) (546, 5.33256769180297850000e-001) (547, -5.06607294082641600000e-001) (548, 1.55085802078247070000e-001) (549, 7.78801679611206050000e-001) (550, -4.10789251327514650000e+000) (551, -3.98660922050476070000e+000) (552, -4.27178293466567990000e-001) (553, 1.02212405204772950000e+000) (554, 2.67378032207489010000e-001) (555, 1.76679521799087520000e-001) (556, 9.09975469112396240000e-001) (557, 6.65924370288848880000e-001) (558, 2.50974625349044800000e-001) (559, 7.46987819671630860000e-001) (560, 1.09997642040252690000e+000) (561, 1.64655625820159910000e+000) (562, 9.84409153461456300000e-001) (563, 1.59811234474182130000e+000) (564, 4.32964116334915160000e-001) (565, 1.09491765499114990000e+000) (566, 1.69070780277252200000e+000) (567, 8.04218113422393800000e-001) (568, 9.07541871070861820000e-001) (569, 7.70371913909912110000e-001) (570, 9.59373474121093750000e-001) (571, 6.88268363475799560000e-001) (572, 2.26765915751457210000e-001) (573, 6.67668044567108150000e-001) (574, 4.19944077730178830000e-001) (575, 5.08778750896453860000e-001) (576, 5.00582456588745120000e-001) (577, 4.00713905692100520000e-002) (578, 3.11102122068405150000e-001) (579, -3.96959090232849120000e+000) (580, -4.11186599731445310000e+000) (581, 4.90240097045898440000e-001) (582, 8.83074570447206500000e-003) (583, 3.74137490987777710000e-001) (584, -2.57244795560836790000e-001) (585, 1.33692771196365360000e-001) (586, 4.32895362377166750000e-001) (587, -9.25166253000497820000e-003) (588, 5.51429927349090580000e-001) (589, 5.71079254150390630000e-001) (590, 4.81588959693908690000e-001) (591, 6.93256139755249020000e-001) (592, -7.13570881634950640000e-003) (593, 6.92133307456970210000e-001) (594, 9.15919914841651920000e-002) (595, 1.01207613945007320000e+000) (596, 1.55723381042480470000e+000) (597, 7.76396870613098140000e-001) (598, 5.82501947879791260000e-001) (599, -4.86797481775283810000e-001) (600, 9.79729712009429930000e-001) (601, 7.32108652591705320000e-001) (602, 2.66372352838516240000e-001) (603, 8.10827255249023440000e-001) (604, 1.65661379694938660000e-001) (605, 7.75818467140197750000e-001) (606, -5.80018386244773860000e-003) (607, 1.32346630096435550000e-001) (608, -3.96935892105102540000e+000) (609, -3.95710444450378420000e+000) (610, 3.18560689687728880000e-001) (611, -2.23829820752143860000e-002) (612, 4.78192210197448730000e-001) (613, 4.56888645887374880000e-001) (614, 4.01634633541107180000e-001) (615, 1.23775553703308110000e+000) (616, 3.93292531371116640000e-002) (617, 1.56524622440338130000e+000) (618, 8.40892612934112550000e-001) (619, 2.32853457331657410000e-001) (620, 9.50327277183532710000e-001) (621, 5.71052730083465580000e-001) (622, 1.32397055625915530000e+000) (623, 1.50463998317718510000e+000) (624, 7.87880122661590580000e-001) (625, 1.04914538562297820000e-001) (626, 5.57461798191070560000e-001) (627, 6.94813787937164310000e-001) (628, -3.18730711936950680000e-001) (629, -1.83808222413063050000e-001) (630, 1.31221070885658260000e-001) (631, 5.62345147132873540000e-001) (632, 6.04428529739379880000e-001) (633, 3.02351057529449460000e-001) (634, 1.29107991233468060000e-002) (635, 3.88695985078811650000e-001) (636, 2.60379970073699950000e-001) (637, -4.10801458358764650000e+000) (638, -4.06261682510375980000e+000) (639, 7.58538961410522460000e-001) (640, 3.58472168445587160000e-002) (641, 3.60996499657630920000e-002) (642, 8.18074941635131840000e-001) (643, -8.70738089084625240000e-001) (644, 6.56533360481262210000e-001) (645, 9.03087735176086430000e-001) (646, 1.29130348563194270000e-001) (647, -6.43148839473724370000e-001) (648, -1.21581114828586580000e-001) (649, 7.13199913501739500000e-001) (650, -2.31901004910469060000e-001) (651, 1.04523968696594240000e+000) (652, 5.05308449268341060000e-001) (653, 3.86662691831588750000e-001) (654, 6.16500437259674070000e-001) (655, 4.23246443271636960000e-001) (656, 1.49576818943023680000e+000) (657, 8.90360474586486820000e-001) (658, 4.74403113126754760000e-001) (659, 1.34928032755851750000e-001) (660, 1.31260111927986150000e-001) (661, -9.23800766468048100000e-001) (662, 2.33628675341606140000e-001) (663, 9.67970967292785640000e-001) (664, 1.34308010339736940000e-001) (665, 6.96513175964355470000e-001) (666, -4.01377677917480470000e+000) (667, -4.10817337036132810000e+000) (668, -2.65800952911376950000e-001) (669, -6.90857708454132080000e-001) (670, 3.43147385865449910000e-003) (671, -1.72317907214164730000e-001) (672, 8.58546137809753420000e-001) (673, -1.78738683462142940000e-001) (674, 4.13778200745582580000e-002) (675, 6.77971184253692630000e-001) (676, 1.40233308076858520000e-001) (677, 4.64718252420425420000e-001) (678, 6.86033785343170170000e-001) (679, 1.23617410659790040000e+000) (680, 3.29213768243789670000e-001) (681, 6.91829204559326170000e-001) (682, -2.94163804501295090000e-002) (683, 1.23145735263824460000e+000) (684, 4.58732217550277710000e-001) (685, -4.68327738344669340000e-002) (686, 1.11613765358924870000e-001) (687, 7.39426791667938230000e-001) (688, 5.88770329952239990000e-001) (689, 4.34022754430770870000e-001) (690, 1.46943390369415280000e+000) (691, -8.18490758538246150000e-002) (692, 6.06236279010772710000e-001) (693, 2.43428591638803480000e-002) (694, 2.64841258525848390000e-001) (695, -4.10022068023681640000e+000) (696, -3.97216916084289550000e+000) (697, -5.53110182285308840000e-001) (698, -2.34101489186286930000e-001) (699, -9.01337265968322750000e-002) (700, 3.89391481876373290000e-001) (701, 1.20554424822330470000e-001) (702, 1.01821637153625490000e+000) (703, 4.49881881475448610000e-001) (704, 1.77016556262969970000e-001) (705, 1.83227866888046260000e-001) (706, 1.23923146724700930000e+000) (707, 2.92232513427734380000e-001) (708, 3.88777822256088260000e-001) (709, 4.27919775247573850000e-001) (710, 2.90764778852462770000e-001) (711, 5.64592480659484860000e-001) (712, 1.74388378858566280000e-001) (713, -1.67087480425834660000e-001) (714, 2.75717854499816890000e-001) (715, 1.76600086688995360000e+000) (716, -5.80693818628787990000e-002) (717, 4.06072944402694700000e-001) (718, 2.19795122742652890000e-001) (719, 4.74415719509124760000e-001) (720, 4.46544289588928220000e-001) (721, 6.60688042640686040000e-001) (722, 1.94465309381484990000e-001) (723, 6.23428106307983400000e-001) (724, -4.12985944747924800000e+000) (725, -4.02514743804931640000e+000) (726, -1.40202134847640990000e-001) (727, -1.50450896471738820000e-002) (728, -2.95155316591262820000e-001) (729, 2.13813371956348420000e-002) (730, 2.55966424942016600000e-001) (731, 7.87222832441329960000e-002) (732, 6.70432090759277340000e-001) (733, 8.58430922031402590000e-001) (734, 4.62562292814254760000e-001) (735, 1.94481730461120610000e-001) (736, 2.64255940914154050000e-001) (737, 1.13080978393554690000e+000) (738, -2.88094699382781980000e-001) (739, -1.25051602721214290000e-001) (740, 2.55555361509323120000e-001) (741, 9.36735391616821290000e-001) (742, 4.31923538446426390000e-001) (743, 5.50738275051116940000e-001) (744, 4.02348905801773070000e-001) (745, 3.08769047260284420000e-001) (746, 1.82890272140502930000e+000) (747, 7.78889000415802000000e-001) (748, 2.20792010426521300000e-001) (749, 4.00809645652771000000e-001) (750, -1.29918381571769710000e-002) (751, -1.65658593177795410000e-001) (752, 3.45556527376174930000e-001) (753, -3.98787736892700200000e+000) (754, -4.08203220367431640000e+000) (755, -2.51705586910247800000e-001) (756, -2.01160565018653870000e-001) (757, 2.22701057791709900000e-001) (758, -2.50231605023145680000e-002) (759, -2.21360802650451660000e-001) (760, 3.18409442901611330000e-001) (761, 5.72044551372528080000e-002) (762, 3.39466154575347900000e-001) (763, -3.87765578925609590000e-002) (764, 4.32051807641983030000e-001) (765, -8.70847105979919430000e-002) (766, 2.47752815485000610000e-001) (767, -3.51901575922966000000e-002) (768, 7.97111570835113530000e-001) (769, -4.94164705276489260000e-001) (770, -1.53244227170944210000e-001) (771, -1.58405080437660220000e-002) (772, 1.62948980927467350000e-001) (773, 5.51848784089088440000e-002) (774, -1.10670827329158780000e-001) (775, 1.33204221725463870000e-001) (776, 2.70819872617721560000e-001) (777, 1.26214012503623960000e-001) (778, 6.99708834290504460000e-002) (779, 3.40601414442062380000e-001) (780, -2.02461615204811100000e-001) (781, -1.20522344112396240000e+000) (782, -4.10456037521362300000e+000) (783, -3.99714851379394530000e+000) (784, -1.49957105517387390000e-001) (785, 1.33302630856633190000e-002) (786, -6.93329423666000370000e-002) (787, 2.95651853084564210000e-001) (788, -7.30102928355336190000e-003) (789, -1.56242623925209050000e-001) (790, -6.29847720265388490000e-002) (791, 9.49983373284339900000e-002) (792, 1.17216587066650390000e+000) (793, -3.46169322729110720000e-002) (794, 3.47949445247650150000e-001) (795, 2.90076643228530880000e-001) (796, 3.36170077323913570000e-001) (797, 2.48955443501472470000e-001) (798, 1.16893935203552250000e+000) (799, 3.31020474433898930000e-001) (800, -2.87410348653793330000e-001) (801, 1.06239877641201020000e-001) (802, 2.15326592326164250000e-001) (803, 4.13376629352569580000e-001) (804, 1.94075107574462890000e-001) (805, 4.59863066673278810000e-001) (806, -3.39378982782363890000e-001) (807, 3.78367751836776730000e-001) (808, 6.26111403107643130000e-002) (809, -1.08768098056316380000e-001) (810, 2.78526425361633300000e-001) (811, -4.03914880752563480000e+000) (812, -4.10855817794799800000e+000) (813, -4.08855056762695310000e+000) (814, -4.07658767700195310000e+000) (815, -3.95048308372497560000e+000) (816, -4.04909753799438480000e+000) (817, -3.99025440216064450000e+000) (818, -3.96218204498291020000e+000) (819, -4.04026603698730470000e+000) (820, -3.98507952690124510000e+000) (821, -4.03119611740112300000e+000) (822, -4.09706497192382810000e+000) (823, -4.04925632476806640000e+000) (824, -3.95551776885986330000e+000) (825, -4.01182937622070310000e+000) (826, -4.02765607833862300000e+000) (827, -3.99584364891052250000e+000) (828, -4.03305149078369140000e+000) (829, -4.02985954284667970000e+000) (830, -4.01302576065063480000e+000) (831, -4.14596033096313480000e+000) (832, -3.99016928672790530000e+000) (833, -3.95765972137451170000e+000) (834, -3.96815848350524900000e+000) (835, -4.05898523330688480000e+000) (836, -4.13610315322875980000e+000) (837, -4.00490188598632810000e+000) (838, -3.95017218589782710000e+000) (839, -4.00347375869750980000e+000) (840, -4.04483127593994140000e+000) (841, -5.19742965698242190000e-001) (0, 2.66661167144775390000e+000) (1, 2.58697295188903810000e+000) (2, 2.73215723037719730000e+000) (3, 2.71286416053771970000e+000) (4, 2.61679482460021970000e+000) (5, 2.58236479759216310000e+000) (6, 2.70699858665466310000e+000) (7, 2.60884189605712890000e+000) (8, 2.75684595108032230000e+000) (9, 2.60991621017456050000e+000) (10, 2.68630790710449220000e+000) (11, 2.66977930068969730000e+000) (12, 2.62313032150268550000e+000) (13, 2.72664594650268550000e+000) (14, 2.60070586204528810000e+000) (15, 2.69883823394775390000e+000) (16, 2.72112226486206050000e+000) (17, 2.77130508422851560000e+000) (18, 2.76839375495910640000e+000) (19, 2.73801660537719730000e+000) (20, 2.63508701324462890000e+000) (21, 2.76033091545104980000e+000) (22, 2.73237085342407230000e+000) (23, 2.68144321441650390000e+000) (24, 2.61318159103393550000e+000) (25, 2.65756630897521970000e+000) (26, 2.77619409561157230000e+000) (27, 2.65315961837768550000e+000) (28, 2.65915918350219730000e+000) (29, 2.62410688400268550000e+000) (30, 1.50721803307533260000e-001) (31, 5.73392808437347410000e-001) (32, 2.70810306072235110000e-001) (33, 2.98653334379196170000e-001) (34, 1.37387979030609130000e+000) (35, 2.70486086606979370000e-001) (36, 1.18439808487892150000e-001) (37, 1.35247409343719480000e-001) (38, 6.40457630157470700000e-001) (39, 3.90957772731781010000e-001) (40, 6.67905569076538090000e-001) (41, 1.93108260631561280000e-001) (42, -2.38758012652397160000e-001) (43, 6.30564033985137940000e-001) (44, 5.16039058566093440000e-002) (45, 4.23525720834732060000e-001) (46, 6.70558393001556400000e-001) (47, 3.35031598806381230000e-001) (48, -2.80422329902648930000e-001) (49, 1.92652761936187740000e-001) (50, 3.56411248445510860000e-001) (51, 6.31111025810241700000e-001) (52, 4.82923835515975950000e-001) (53, 1.98625534772872920000e-001) (54, 6.18270814418792720000e-001) (55, 4.40096586942672730000e-001) (56, 7.38415300846099850000e-001) (57, 2.72303247451782230000e+000) (58, 2.76490259170532230000e+000) (59, 3.10528969764709470000e+000) (60, 7.06174314022064210000e-001) (61, 2.87225693464279170000e-001) (62, 2.28381514549255370000e-001) (63, 6.01505279541015630000e-001) (64, 6.12922072410583500000e-001) (65, 3.56766283512115480000e-001) (66, 4.53232198953628540000e-001) (67, 4.60152059793472290000e-001) (68, 5.07110238075256350000e-001) (69, 6.32730185985565190000e-001) (70, 4.59284693002700810000e-001) (71, 1.80737173557281490000e+000) (72, 4.41981613636016850000e-001) (73, 1.58695235848426820000e-001) (74, 5.61290025711059570000e-001) (75, 4.61280882358551030000e-001) (76, 1.62261519581079480000e-002) (77, 8.21143567562103270000e-001) (78, 4.12132531404495240000e-001) (79, 9.28758680820465090000e-002) (80, 2.19981342554092410000e-001) (81, 9.56199944019317630000e-001) (82, 5.56361138820648190000e-001) (83, 2.72220253944396970000e-001) (84, 6.42618536949157710000e-001) (85, 7.30713605880737300000e-001) (86, 2.64813017845153810000e+000) (87, 2.60660791397094730000e+000) (88, 5.95141351222991940000e-001) (89, 9.65216577053070070000e-001) (90, 6.19578778743743900000e-001) (91, 2.70393222570419310000e-001) (92, 4.29518014192581180000e-001) (93, -1.09101526439189910000e-001) (94, 6.43826127052307130000e-002) (95, 3.00706952810287480000e-001) (96, -2.45443191379308700000e-002) (97, 3.93791466951370240000e-001) (98, 2.71970689296722410000e-001) (99, -4.07479882240295410000e-001) (100, 3.98110330104827880000e-001) (101, 8.85917425155639650000e-001) (102, 7.25042164325714110000e-001) (103, -4.27906736731529240000e-002) (104, 6.09267115592956540000e-001) (105, 6.77185893058776860000e-001) (106, -2.18324027955532070000e-002) (107, 1.97054028511047360000e-001) (108, 4.83326688408851620000e-002) (109, 5.51911354064941410000e-001) (110, 1.15242995321750640000e-001) (111, 3.32245260477066040000e-001) (112, 1.87808677554130550000e-001) (113, 2.68862068653106690000e-001) (114, 5.18448591232299800000e-001) (115, 2.60970854759216310000e+000) (116, 2.66612958908081050000e+000) (117, 3.89755293726921080000e-002) (118, 4.14897739887237550000e-001) (119, 8.96217674016952510000e-002) (120, 3.59460115432739260000e-001) (121, 2.48507242649793620000e-002) (122, 5.29761791229248050000e-001) (123, 5.11904656887054440000e-001) (124, 1.06567096710205080000e+000) (125, 4.89668408408761020000e-003) (126, 3.55246812105178830000e-001) (127, 1.02249014377593990000e+000) (128, 6.79445624351501460000e-001) (129, 5.56407094001770020000e-001) (130, 4.05713111162185670000e-001) (131, 7.29952991008758540000e-001) (132, 7.71910324692726140000e-002) (133, 5.76377034187316890000e-001) (134, 1.12987793982028960000e-001) (135, 2.27373898029327390000e-001) (136, 5.53225517272949220000e-001) (137, 2.32676357030868530000e-001) (138, -5.36559633910655980000e-002) (139, 3.91987711191177370000e-001) (140, 2.97688096761703490000e-001) (141, 5.81066370010375980000e-001) (142, 1.31186866760253910000e+000) (143, 8.76202166080474850000e-001) (144, 2.71634912490844730000e+000) (145, 2.67826342582702640000e+000) (146, 5.16962170600891110000e-001) (147, 5.01452028751373290000e-001) (148, 1.04550369083881380000e-001) (149, 1.51782703399658200000e+000) (150, 1.27461314201354980000e-001) (151, 2.82983303070068360000e-001) (152, 6.39214456081390380000e-001) (153, 4.66019883751869200000e-002) (154, 5.02732098102569580000e-001) (155, 1.23697507381439210000e+000) (156, 2.24182337522506710000e-001) (157, 2.59559303522109990000e-001) (158, 6.77015602588653560000e-001) (159, 7.60128498077392580000e-001) (160, 5.53785502910614010000e-001) (161, 1.14757820963859560000e-001) (162, 3.81154194474220280000e-002) (163, 2.11843699216842650000e-001) (164, -1.04429665952920910000e-002) (165, 1.77609056234359740000e-001) (166, 5.19565403461456300000e-001) (167, 1.21179783344268800000e+000) (168, 4.11416798830032350000e-001) (169, 9.59882855415344240000e-001) (170, 3.94686818122863770000e-001) (171, 1.99715137481689450000e+000) (172, 4.71944689750671390000e-001) (173, 2.61775922775268550000e+000) (174, 2.65707182884216310000e+000) (175, -3.71002346277236940000e-001) (176, 5.70565342903137210000e-001) (177, 4.46197614073753360000e-002) (178, 4.40806925296783450000e-001) (179, 1.58850133419036870000e+000) (180, 6.07945024967193600000e-001) (181, 9.72658932209014890000e-001) (182, 1.07679390907287600000e+000) (183, 5.83369076251983640000e-001) (184, -3.88549953699111940000e-001) (185, 6.38290941715240480000e-001) (186, 1.34356379508972170000e+000) (187, -8.47316607832908630000e-002) (188, 1.09961383044719700000e-001) (189, 7.12470561265945430000e-002) (190, 1.04216265678405760000e+000) (191, 4.46214586496353150000e-001) (192, 8.69634032249450680000e-001) (193, 1.23781907558441160000e+000) (194, 8.92544567584991460000e-001) (195, 8.00812840461730960000e-002) (196, 1.92531302571296690000e-001) (197, 7.62989878654479980000e-001) (198, -2.41042554378509520000e-001) (199, 7.78448879718780520000e-001) (200, 4.19638693332672120000e-001) (201, 7.10494816303253170000e-002) (202, 2.63151645660400390000e+000) (203, 2.77560210227966310000e+000) (204, 5.64989328384399410000e-001) (205, 6.72172248363494870000e-001) (206, 8.49338173866271970000e-001) (207, 5.25221526622772220000e-001) (208, 5.40041983127593990000e-001) (209, 1.54803782701492310000e-001) (210, 5.13950586318969730000e-001) (211, 5.70059359073638920000e-001) (212, 8.92810344696044920000e-001) (213, 1.01153731346130370000e-001) (214, 5.37499785423278810000e-001) (215, 1.82440415024757390000e-001) (216, 1.14867627620697020000e+000) (217, -3.39594542980194090000e-001) (218, 5.42606174945831300000e-001) (219, 4.60707604885101320000e-001) (220, -6.88181594014167790000e-002) (221, 2.35977783799171450000e-001) (222, 1.25221455097198490000e+000) (223, -1.73501208424568180000e-001) (224, 5.96328854560852050000e-001) (225, 1.88168495893478390000e-001) (226, 5.41639745235443120000e-001) (227, 4.86201107501983640000e-001) (228, 3.82008910179138180000e-001) (229, 9.90547835826873780000e-001) (230, 3.04639339447021480000e-002) (231, 2.73949384689331050000e+000) (232, 2.67220258712768550000e+000) (233, 3.02015811204910280000e-001) (234, 5.04724919795989990000e-001) (235, -1.62091553211212160000e-001) (236, 2.20957249402999880000e-001) (237, -1.55264372006058690000e-002) (238, 1.71829724311828610000e+000) (239, 2.70837515592575070000e-001) (240, 1.57633423805236820000e-001) (241, 6.63639545440673830000e-001) (242, 7.88514494895935060000e-001) (243, 5.75472056865692140000e-001) (244, 7.11854100227355960000e-001) (245, 1.71316131949424740000e-001) (246, 5.00817038118839260000e-002) (247, 4.80469018220901490000e-001) (248, 1.41946196556091310000e+000) (249, 4.82852339744567870000e-001) (250, 7.73082494735717770000e-001) (251, 1.58746868371963500000e-001) (252, 4.96796041727066040000e-001) (253, 4.22567635774612430000e-001) (254, -2.71090984344482420000e-001) (255, 9.51382517814636230000e-001) (256, 7.66653001308441160000e-001) (257, 1.27414986491203310000e-001) (258, 4.75065439939498900000e-001) (259, 2.36990898847579960000e-001) (260, 