FANN_FLO_2.1
num_layers=5
learning_rate=0.700000
connection_rate=1.000000
network_type=0
learning_momentum=0.000000
training_algorithm=2
train_error_function=1
train_stop_function=0
cascade_output_change_fraction=0.010000
quickprop_decay=-0.000100
quickprop_mu=1.750000
rprop_increase_factor=1.200000
rprop_decrease_factor=0.500000
rprop_delta_min=0.000000
rprop_delta_max=50.000000
rprop_delta_zero=0.100000
cascade_output_stagnation_epochs=12
cascade_candidate_change_fraction=0.010000
cascade_candidate_stagnation_epochs=12
cascade_max_out_epochs=150
cascade_min_out_epochs=50
cascade_max_cand_epochs=150
cascade_min_cand_epochs=50
cascade_num_candidate_groups=2
bit_fail_limit=3.49999994039535520000e-001
cascade_candidate_limit=1.00000000000000000000e+003
cascade_weight_multiplier=4.00000005960464480000e-001
cascade_activation_functions_count=10
cascade_activation_functions=3 5 7 8 10 11 14 15 16 17 
cascade_activation_steepnesses_count=4
cascade_activation_steepnesses=2.50000000000000000000e-001 5.00000000000000000000e-001 7.50000000000000000000e-001 1.00000000000000000000e+000 
layer_sizes=50 4 2 2 2 
scale_included=0
neurons (num_inputs, activation_function, activation_steepness)=(0, 0, 0.00000000000000000000e+000) (0, 0, 0.00000000000000000000e+000) (0, 0, 0.00000000000000000000e+000) (0, 0, 0.00000000000000000000e+000) (0, 0, 0.00000000000000000000e+000) (0, 0, 0.00000000000000000000e+000) (0, 0, 0.00000000000000000000e+000) (0, 0, 0.00000000000000000000e+000) (0, 0, 0.00000000000000000000e+000) (0, 0, 0.00000000000000000000e+000) (0, 0, 0.00000000000000000000e+000) (0, 0, 0.00000000000000000000e+000) (0, 0, 0.00000000000000000000e+000) (0, 0, 0.00000000000000000000e+000) (0, 0, 0.00000000000000000000e+000) (0, 0, 0.00000000000000000000e+000) (0, 0, 0.00000000000000000000e+000) (0, 0, 0.00000000000000000000e+000) (0, 0, 0.00000000000000000000e+000) (0, 0, 0.00000000000000000000e+000) (0, 0, 0.00000000000000000000e+000) (0, 0, 0.00000000000000000000e+000) (0, 0, 0.00000000000000000000e+000) (0, 0, 0.00000000000000000000e+000) (0, 0, 0.00000000000000000000e+000) (0, 0, 0.00000000000000000000e+000) (0, 0, 0.00000000000000000000e+000) (0, 0, 0.00000000000000000000e+000) (0, 0, 0.00000000000000000000e+000) (0, 0, 0.00000000000000000000e+000) (0, 0, 0.00000000000000000000e+000) (0, 0, 0.00000000000000000000e+000) (0, 0, 0.00000000000000000000e+000) (0, 0, 0.00000000000000000000e+000) (0, 0, 0.00000000000000000000e+000) (0, 0, 0.00000000000000000000e+000) (0, 0, 0.00000000000000000000e+000) (0, 0, 0.00000000000000000000e+000) (0, 0, 0.00000000000000000000e+000) (0, 0, 0.00000000000000000000e+000) (0, 0, 0.00000000000000000000e+000) (0, 0, 0.00000000000000000000e+000) (0, 0, 0.00000000000000000000e+000) (0, 0, 0.00000000000000000000e+000) (0, 0, 0.00000000000000000000e+000) (0, 0, 0.00000000000000000000e+000) (0, 0, 0.00000000000000000000e+000) (0, 0, 0.00000000000000000000e+000) (0, 0, 0.00000000000000000000e+000) (0, 0, 0.00000000000000000000e+000) (50, 0, 5.00000000000000000000e-001) (50, 0, 5.00000000000000000000e-001) (50, 0, 5.00000000000000000000e-001) (0, 0, 0.00000000000000000000e+000) (4, 0, 5.00000000000000000000e-001) (0, 0, 0.00000000000000000000e+000) (2, 0, 5.00000000000000000000e-001) (0, 0, 0.00000000000000000000e+000) (2, 5, 5.00000000000000000000e-001) (0, 5, 0.00000000000000000000e+000) 
connections (connected_to_neuron, weight)=(0, 1.56218540668487550000e+000) (1, 1.66786170005798340000e+000) (2, 1.72944009304046630000e+000) (3, 1.69237959384918210000e+000) (4, 1.61003696918487550000e+000) (5, 1.58912026882171630000e+000) (6, 1.70127844810485840000e+000) (7, 1.57976353168487550000e+000) (8, -3.65901589393615720000e-002) (9, -5.50901517271995540000e-002) (10, 2.38188457489013670000e+000) (11, -4.15325462818145750000e-001) (12, -5.60013234615325930000e-001) (13, 1.56158113479614260000e+000) (14, 1.68146038055419920000e+000) (15, -1.36665284633636470000e-001) (16, 2.37467622756958010000e+000) (17, -3.80309343338012700000e-001) (18, 2.30004811286926270000e+000) (19, -7.26989656686782840000e-002) (20, 1.71583533287048340000e+000) (21, 1.66075718402862550000e+000) (22, -1.36754000186920170000e+000) (23, -5.40036499500274660000e-001) (24, -9.63055901229381560000e-003) (25, -5.44107496738433840000e-001) (26, -1.50092065334320070000e+000) (27, 1.61648845672607420000e+000) (28, 1.73361492156982420000e+000) (29, -1.97137221693992610000e-002) (30, 2.23153471946716310000e+000) (31, -4.57823127508163450000e-001) (32, 2.30474781990051270000e+000) (33, -1.57254204154014590000e-001) (34, 1.64316689968109130000e+000) (35, 1.67082190513610840000e+000) (36, -4.65133935213088990000e-001) (37, -4.38978731632232670000e-001) (38, 2.24446439743041990000e+000) (39, -1.24811358749866490000e-001) (40, -7.67761245369911190000e-002) (41, 1.58349895477294920000e+000) (42, 1.64994788169860840000e+000) (43, 1.58249795436859130000e+000) (44, 1.62304973602294920000e+000) (45, 1.58513462543487550000e+000) (46, 1.55264568328857420000e+000) (47, 1.67383706569671630000e+000) (48, 1.58391392230987550000e+000) (49, 1.34184360504150390000e+000) (0, 1.72481358051300050000e+000) (1, 1.72607100009918210000e+000) (2, 1.61046421527862550000e+000) (3, 1.60051548480987550000e+000) (4, 1.67753577232360840000e+000) (5, 1.67439246177673340000e+000) (6, 1.59175086021423340000e+000) (7, 1.64079868793487550000e+000) (8, -1.30878701806068420000e-001) (9, -9.70277637243270870000e-002) (10, 2.25736045837402340000e+000) (11, -4.16314125061035160000e-001) (12, -4.56645429134368900000e-001) (13, 1.61994910240173340000e+000) (14, 1.59166538715362550000e+000) (15, -9.56423059105873110000e-002) (16, 2.25410151481628420000e+000) (17, -3.78179579973220830000e-001) (18, 2.22889065742492680000e+000) (19, -3.43807190656661990000e-002) (20, 1.63420689105987550000e+000) (21, 1.68164348602294920000e+000) (22, -1.38613760471343990000e+000) (23, -5.32602369785308840000e-001) (24, -1.38234019279479980000e-001) (25, -4.85308676958084110000e-001) (26, -1.35860502719879150000e+000) (27, 1.62033367156982420000e+000) (28, 1.66897869110107420000e+000) (29, -1.84301152825355530000e-001) (30, 2.35405254364013670000e+000) (31, -3.71631592512130740000e-001) (32, 2.26483106613159180000e+000) (33, -3.32881361246109010000e-002) (34, 1.67754185199737550000e+000) (35, 1.69206213951110840000e+000) (36, -5.31454861164093020000e-001) (37, -5.43716847896575930000e-001) (38, 2.40443086624145510000e+000) (39, -1.45565018057823180000e-001) (40, -1.80772945284843440000e-001) (41, 1.56081819534301760000e+000) (42, 1.62216472625732420000e+000) (43, 1.65273714065551760000e+000) (44, 1.55337810516357420000e+000) (45, 1.66569495201110840000e+000) (46, 1.61211824417114260000e+000) (47, 1.64453411102294920000e+000) (48, 1.66691565513610840000e+000) (49, 1.38003873825073240000e+000) (0, -6.53139710426330570000e-001) (1, -7.63833045959472660000e-001) (2, -7.09078431129455570000e-001) (3, -6.65645718574523930000e-001) (4, -6.46071791648864750000e-001) (5, -7.73287415504455570000e-001) (6, -8.29628944396972660000e-001) (7, -7.16231703758239750000e-001) (8, 9.06198978424072270000e-001) (9, 9.45505619049072270000e-001) (10, -8.12613666057586670000e-001) (11, 1.34328496456146240000e+000) (12, 1.37380874156951900000e+000) (13, -8.26906800270080570000e-001) (14, -8.09536218643188480000e-001) (15, 8.58396291732788090000e-001) (16, -7.60764300823211670000e-001) (17, 1.30811655521392820000e+000) (18, -7.51541793346405030000e-001) (19, 8.94217848777771000000e-001) (20, -7.14156508445739750000e-001) (21, -6.57705068588256840000e-001) (22, 2.76187944412231450000e+000) (23, 1.35571789741516110000e+000) (24, 7.91184365749359130000e-001) (25, 1.37459611892700200000e+000) (26, 2.71496582031250000000e+000) (27, -6.88356995582580570000e-001) (28, -6.95711731910705570000e-001) (29, 8.99424076080322270000e-001) (30, -7.44022309780120850000e-001) (31, 1.37654304504394530000e+000) (32, -7.27042376995086670000e-001) (33, 7.74143338203430180000e-001) (34, -7.42550134658813480000e-001) (35, -8.21737170219421390000e-001) (36, 1.28076672554016110000e+000) (37, 1.38766372203826900000e+000) (38, -8.40006291866302490000e-001) (39, 8.51639628410339360000e-001) (40, 8.96585941314697270000e-001) (41, -7.34676599502563480000e-001) (42, -7.05294251441955570000e-001) (43, -6.84401869773864750000e-001) (44, -7.66878724098205570000e-001) (45, -6.82015419006347660000e-001) (46, -6.82979702949523930000e-001) (47, -6.38710975646972660000e-001) (48, -8.02376747131347660000e-001) (49, -1.90533697605133060000e-001) (50, -7.16522812843322750000e-001) (51, -7.05512046813964840000e-001) (52, 1.14582214355468750000e+001) (53, -3.79505485296249390000e-001) (54, -8.14709424972534180000e-001) (55, 1.00228595733642580000e+000) (56, -7.31294155120849610000e-001) (57, -6.52181863784790040000e-001) 
