FANN_FLO_2.1
num_layers=3
learning_rate=0.700000
connection_rate=1.000000
network_type=0
learning_momentum=0.000000
training_algorithm=2
train_error_function=0
train_stop_function=0
cascade_output_change_fraction=0.010000
quickprop_decay=-0.000100
quickprop_mu=1.750000
rprop_increase_factor=1.200000
rprop_decrease_factor=0.500000
rprop_delta_min=0.000000
rprop_delta_max=50.000000
rprop_delta_zero=0.100000
cascade_output_stagnation_epochs=12
cascade_candidate_change_fraction=0.010000
cascade_candidate_stagnation_epochs=12
cascade_max_out_epochs=150
cascade_min_out_epochs=50
cascade_max_cand_epochs=150
cascade_min_cand_epochs=50
cascade_num_candidate_groups=2
bit_fail_limit=3.49999994039535520000e-001
cascade_candidate_limit=1.00000000000000000000e+003
cascade_weight_multiplier=4.00000005960464480000e-001
cascade_activation_functions_count=10
cascade_activation_functions=3 5 7 8 10 11 14 15 16 17 
cascade_activation_steepnesses_count=4
cascade_activation_steepnesses=2.50000000000000000000e-001 5.00000000000000000000e-001 7.50000000000000000000e-001 1.00000000000000000000e+000 
layer_sizes=10 4 3 
scale_included=0
neurons (num_inputs, activation_function, activation_steepness)=(0, 0, 0.00000000000000000000e+000) (0, 0, 0.00000000000000000000e+000) (0, 0, 0.00000000000000000000e+000) (0, 0, 0.00000000000000000000e+000) (0, 0, 0.00000000000000000000e+000) (0, 0, 0.00000000000000000000e+000) (0, 0, 0.00000000000000000000e+000) (0, 0, 0.00000000000000000000e+000) (0, 0, 0.00000000000000000000e+000) (0, 0, 0.00000000000000000000e+000) (10, 0, 5.00000000000000000000e-001) (10, 0, 5.00000000000000000000e-001) (10, 0, 5.00000000000000000000e-001) (0, 0, 5.00000000000000000000e-001) (4, 5, 5.00000000000000000000e-001) (4, 5, 5.00000000000000000000e-001) (0, 5, 5.00000000000000000000e-001) 
connections (connected_to_neuron, weight)=(0, -2.59618878364562990000e-001) (1, -2.66692876815795900000e-001) (2, -3.02170813083648680000e-001) (3, -2.38181620836257930000e-001) (4, 5.05130577087402340000e+000) (5, -1.97104960680007930000e-001) (6, -3.50345939397811890000e-001) (7, -1.80124968290328980000e-001) (8, -3.49741667509078980000e-001) (9, -1.96460950374603270000e+000) (0, 8.02968084812164310000e-001) (1, 8.03163409233093260000e-001) (2, 8.26293289661407470000e-001) (3, 8.92717897891998290000e-001) (4, -3.82696986198425290000e+000) (5, 8.26604545116424560000e-001) (6, 7.90630459785461430000e-001) (7, 7.99437820911407470000e-001) (8, 7.82756924629211430000e-001) (9, 4.08010387420654300000e+000) (0, 9.71897020936012270000e-002) (1, 1.49118378758430480000e-001) (2, 3.82846295833587650000e-002) (3, 4.66159284114837650000e-002) (4, -5.59114813804626460000e-001) (5, 1.20114475488662720000e-001) (6, 7.43625015020370480000e-002) (7, 2.01712369918823240000e-001) (8, 9.53769385814666750000e-002) (9, 9.40593481063842770000e-001) (10, 1.57954251766204830000e+000) (11, -2.10473465919494630000e+000) (12, -7.37039387226104740000e-001) (13, -8.38176548480987550000e-001) (10, -2.00497269630432130000e+000) (11, 1.41416513919830320000e+000) (12, 4.60884898900985720000e-001) (13, 6.82436585426330570000e-001) 
