FANN_FLO_2.1
num_layers=4
learning_rate=0.700000
connection_rate=1.000000
network_type=0
learning_momentum=0.000000
training_algorithm=2
train_error_function=1
train_stop_function=0
cascade_output_change_fraction=0.010000
quickprop_decay=-0.000100
quickprop_mu=1.750000
rprop_increase_factor=1.200000
rprop_decrease_factor=0.500000
rprop_delta_min=0.000000
rprop_delta_max=50.000000
rprop_delta_zero=0.100000
cascade_output_stagnation_epochs=12
cascade_candidate_change_fraction=0.010000
cascade_candidate_stagnation_epochs=12
cascade_max_out_epochs=150
cascade_min_out_epochs=50
cascade_max_cand_epochs=150
cascade_min_cand_epochs=50
cascade_num_candidate_groups=2
bit_fail_limit=3.49999999999999980000e-001
cascade_candidate_limit=1.00000000000000000000e+003
cascade_weight_multiplier=4.00000000000000020000e-001
cascade_activation_functions_count=10
cascade_activation_functions=3 5 7 8 10 11 14 15 16 17 
cascade_activation_steepnesses_count=4
cascade_activation_steepnesses=2.50000000000000000000e-001 5.00000000000000000000e-001 7.50000000000000000000e-001 1.00000000000000000000e+000 
layer_sizes=26 16 11 4 
scale_included=0
neurons (num_inputs, activation_function, activation_steepness)=(0, 0, 0.00000000000000000000e+000) (0, 0, 0.00000000000000000000e+000) (0, 0, 0.00000000000000000000e+000) (0, 0, 0.00000000000000000000e+000) (0, 0, 0.00000000000000000000e+000) (0, 0, 0.00000000000000000000e+000) (0, 0, 0.00000000000000000000e+000) (0, 0, 0.00000000000000000000e+000) (0, 0, 0.00000000000000000000e+000) (0, 0, 0.00000000000000000000e+000) (0, 0, 0.00000000000000000000e+000) (0, 0, 0.00000000000000000000e+000) (0, 0, 0.00000000000000000000e+000) (0, 0, 0.00000000000000000000e+000) (0, 0, 0.00000000000000000000e+000) (0, 0, 0.00000000000000000000e+000) (0, 0, 0.00000000000000000000e+000) (0, 0, 0.00000000000000000000e+000) (0, 0, 0.00000000000000000000e+000) (0, 0, 0.00000000000000000000e+000) (0, 0, 0.00000000000000000000e+000) (0, 0, 0.00000000000000000000e+000) (0, 0, 0.00000000000000000000e+000) (0, 0, 0.00000000000000000000e+000) (0, 0, 0.00000000000000000000e+000) (0, 0, 0.00000000000000000000e+000) (26, 5, 5.00000000000000000000e-001) (26, 5, 5.00000000000000000000e-001) (26, 5, 5.00000000000000000000e-001) (26, 5, 5.00000000000000000000e-001) (26, 5, 5.00000000000000000000e-001) (26, 5, 5.00000000000000000000e-001) (26, 5, 5.00000000000000000000e-001) (26, 5, 5.00000000000000000000e-001) (26, 5, 5.00000000000000000000e-001) (26, 5, 5.00000000000000000000e-001) (26, 5, 5.00000000000000000000e-001) (26, 5, 5.00000000000000000000e-001) (26, 5, 5.00000000000000000000e-001) (26, 5, 5.00000000000000000000e-001) (26, 5, 5.00000000000000000000e-001) (0, 5, 0.00000000000000000000e+000) (16, 5, 5.00000000000000000000e-001) (16, 5, 5.00000000000000000000e-001) (16, 5, 5.00000000000000000000e-001) (16, 5, 5.00000000000000000000e-001) (16, 5, 5.00000000000000000000e-001) (16, 5, 5.00000000000000000000e-001) (16, 5, 5.00000000000000000000e-001) (16, 5, 5.00000000000000000000e-001) (16, 5, 5.00000000000000000000e-001) (16, 5, 5.00000000000000000000e-001) (0, 5, 0.00000000000000000000e+000) (11, 5, 5.00000000000000000000e-001) (11, 5, 5.00000000000000000000e-001) (11, 5, 5.00000000000000000000e-001) (0, 5, 0.00000000000000000000e+000) 
connections (connected_to_neuron, weight)=(0, 4.55868465423096610000e-001) (1, 4.23240285171956890000e-001) (2, 3.28190234927475790000e-001) (3, -1.90747737342618410000e-001) (4, 3.46426325120406830000e-001) (5, 3.25986865754018030000e-001) (6, 4.51193172384679320000e-001) (7, -1.90686702185458910000e-001) (8, -1.05555148786393240000e-001) (9, 5.11581356878283430000e-001) (10, 4.50161678228683860000e-001) (11, -6.86469054450492560000e-002) (12, 2.46940233716756440000e-001) (13, -1.88526057622012800000e-001) (14, 4.37222224910871040000e-001) (15, 4.07451476439829760000e-001) (16, 2.14499718777654280000e-002) (17, 4.15811091779320300000e-001) (18, 2.76823786526517730000e-001) (19, 4.00979548589563200000e-001) (20, 9.20021583585485530000e-003) (21, 4.10953908035750600000e-001) (22, 2.41550829339573060000e-001) (23, -1.12537932399091210000e-001) (24, 3.98171931360226440000e-001) (25, -1.12781711394077420000e-001) (0, 1.44564183507478960000e-001) (1, 1.18794751680758900000e+000) (2, 1.38427930684253560000e+000) (3, -9.36838094125329150000e-001) (4, 6.45226784085176360000e-002) (5, 1.34506421836756030000e+000) (6, 9.22814678846558270000e-002) (7, -9.34628621436155440000e-001) (8, 1.01552940773051120000e-001) (9, 7.61987039731289730000e-002) (10, 4.68530004108439200000e-002) (11, -7.61746538781886700000e-001) (12, 1.31902662032331990000e+000) (13, -7.74484576081073240000e-001) (14, 1.02077610608754730000e-001) (15, 1.33849182954203940000e+000) (16, -1.06956284518419080000e+000) (17, 1.52803929724010770000e-001) (18, 1.16717613933283390000e+000) (19, 1.47274144485360530000e-001) (20, -1.13328354925870300000e+000) (21, 1.19511914777382970000e+000) (22, 1.29438672737803180000e+000) (23, -1.35825012584933940000e+000) (24, 1.75789769910276480000e-001) (25, 8.20094834505809140000e-002) (0, 6.95112661530112860000e-001) (1, 1.28903925496660740000e-001) (2, 1.25638544588627780000e-001) (3, 1.21411869332884920000e-001) (4, 5.90864613101695910000e-001) (5, 1.86075557207959430000e-001) (6, 6.87452749306596280000e-001) (7, 1.40045902813678650000e-001) (8, -4.07268828246152290000e-001) (9, 6.53614858177372420000e-001) (10, 6.29036000389243900000e-001) (11, 1.02631351474908400000e-001) (12, 1.12998163540896420000e-001) (13, 6.70356478194910900000e-002) (14, 6.69368032240238000000e-001) (15, 7.90776453501913830000e-001) (16, 1.70336031969813730000e-001) (17, 6.96553091239076940000e-001) (18, 2.21485903729324780000e-001) (19, 5.50618030470725220000e-001) (20, 3.62460370436989980000e-003) (21, 1.41513788965812350000e-001) (22, 1.58249629058945800000e-001) (23, -5.41363976869728370000e-001) (24, 6.75294546000424930000e-001) (25, -3.56341093112269910000e-001) (0, -3.48039008988809130000e-001) (1, 3.38151280678752330000e-002) (2, -7.82515239926730170000e-002) (3, 3.76732030263805250000e-001) (4, -3.78117134437008120000e-001) (5, -6.48638620453911850000e-003) (6, -3.81303169640733740000e-001) (7, 2.65525973919205960000e-001) (8, 6.29310854420015780000e-001) (9, -2.79008246241420620000e-001) (10, -3.41508247172743200000e-001) (11, 3.72252049728298340000e-001) (12, -6.81257914199128460000e-002) (13, 2.61821139879624630000e-001) (14, -4.64732125962047050000e-001) (15, -3.83133027190449130000e+000) (16, 1.70451595667148140000e+000) (17, -3.48045112504525080000e-001) (18, -1.12159991837986530000e+000) (19, -4.49192574949239700000e-001) (20, 1.81354305790548680000e+000) (21, 1.85136141679899110000e-002) (22, -9.85701278110688030000e-002) (23, 3.92614228503605030000e+000) (24, -3.82676460676822370000e-001) (25, 4.88868957796018470000e-001) (0, 1.97741462093766000000e-001) (1, 6.93889359160009270000e-001) (2, 6.92693070079683170000e-001) (3, -2.67458260001731010000e-001) (4, 1.73296881651388370000e-001) (5, 7.67308549707165440000e-001) (6, 1.34277105679323440000e-001) (7, -2.32210456742122820000e-001) (8, 2.88584301454466870000e-002) (9, 2.56927253991327990000e-001) (10, 2.36553718531488680000e-001) (11, -2.48439705030832460000e-001) (12, 5.80638625050566850000e-001) (13, -2.16298591270642550000e-001) (14, 2.28954841465131590000e-001) (15, 3.12556687388456990000e-001) (16, -5.30710373012812430000e-001) (17, 2.70245125283529730000e-001) (18, 7.26290623729921590000e-001) (19, 1.40179205376646580000e-001) (20, -4.09641035271238800000e-001) (21, 6.96825150219380960000e-001) (22, 6.66704300161170330000e-001) (23, -1.13778977135788270000e-001) (24, 1.22027349637412840000e-001) (25, 1.17792757642546460000e-001) (0, -2.78025407787977910000e-001) (1, -2.67176696557289150000e-002) (2, -1.75106343741892430000e-001) (3, 3.83301834324411120000e-001) (4, -2.82480974260621020000e-001) (5, -1.61233052519539290000e-001) (6, -2.63993425157010080000e-001) (7, 3.30530837444312050000e-001) (8, 6.00875648621776340000e-001) (9, -3.76951190512086920000e-001) (10, -3.77140399499281350000e-001) (11, 2.83765700028707160000e-001) (12, -1.05062397385656310000e-001) (13, 4.02192215465274730000e-001) (14, -3.70579120104635670000e-001) (15, -7.35376781007386570000e-001) (16, 4.05697431021081470000e-001) (17, -3.91343280570295770000e-001) (18, -1.37834056172366440000e-001) (19, -2.79795427345603250000e-001) (20, 4.20071210532142470000e-001) (21, -1.87234029469484030000e-001) (22, -8.20887642308225090000e-002) (23, 1.01391981051811020000e+000) (24, -3.50291033864819630000e-001) (25, 6.57797036188721100000e-001) (0, 2.36399242083098900000e-002) (1, -5.20884980011113940000e-001) (2, -6.78636447205543950000e-001) (3, 1.26825348886068090000e+000) (4, 1.31916293009253530000e-001) (5, -6.84025851582727330000e-001) (6, 1.41578158387601540000e-001) (7, 1.25206696518198290000e+000) (8, 1.07146978321928040000e-001) (9, 3.85935377123860920000e-002) (10, -8.35173812647485580000e-004) (11, 1.11583039088627480000e+000) (12, -6.94999972840004480000e-001) (13, 1.15159088946602270000e+000) (14, 9.88962729859668570000e-002) (15, -1.30033996873641080000e+000) (16, 4.36509328338431040000e-001) (17, 5.98581864667540460000e-002) (18, -2.19837093244833580000e-001) (19, 1.29404611582504690000e-002) (20, 4.01163868827367650000e-001) (21, -5.95469942060016470000e-001) (22, -6.95903293165965000000e-001) (23, 1.53192444961191000000e+000) (24, -1.40280077423078630000e-003) (25, 1.57610846261398240000e-001) (0, 1.44130162352328560000e-001) (1, 6.98363236179800230000e-001) (2, 5.85649611453361360000e-001) (3, -2.78951180094863860000e-001) (4, 2.05317907404721970000e-001) (5, 7.12541703187950850000e-001) (6, 1.30543736368625040000e-001) (7, -2.53304207056444190000e-001) (8, 1.23031884116795360000e-001) (9, 1.74916295623577660000e-001) (10, 1.06349400070601330000e-001) (11, -3.60787118814314360000e-001) (12, 7.18565873199592970000e-001) (13, -2.10243903680420670000e-001) (14, 2.43141394296460840000e-001) (15, 6.56705742943161310000e-001) (16, -4.64852213968903310000e-001) (17, 1.35750035274329940000e-001) (18, 6.11466484456543840000e-001) (19, 7.16142921311328780000e-002) (20, -4.59011149428739660000e-001) (21, 6.50957229614020690000e-001) (22, 7.50304154922530220000e-001) (23, -4.71450114457844680000e-001) (24, 1.98414831129983120000e-001) (25, 4.00179668641666290000e-002) (0, 7.43799611488806240000e-002) (1, 7.33245218827847540000e-001) (2, 7.20574320201536440000e-001) (3, -2.64600545493175240000e-001) (4, 7.85730764457379110000e-002) (5, 6.95232522948914240000e-001) (6, 1.39254229693707540000e-001) (7, -2.54230672291777090000e-001) (8, 2.27812465915783970000e-001) (9, 1.17202227411982110000e-001) (10, 7.07056446878790430000e-002) (11, -2.90638143537415680000e-001) (12, 6.54479348513519630000e-001) (13, -2.84455282117158870000e-001) (14, 1.27877276399177730000e-001) (15, 7.68800480712746090000e-001) (16, -1.33951183391999240000e-001) (17, 1.23537676725137660000e-001) (18, 3.21049403030262860000e-001) (19, 3.35535445248946180000e-002) (20, -1.10312267024126960000e-001) (21, 5.88927589724222320000e-001) (22, 6.22747170306298340000e-001) (23, -6.75579765708231640000e-001) (24, 1.73269122778693940000e-001) (25, 1.08922083284804270000e-001) (0, 1.06460442368117540000e+000) (1, 1.27803680182931870000e-002) (2, -1.25714507092316270000e-001) (3, 3.61723517269589730000e-001) (4, 1.11079583061948120000e+000) (5, -1.61615386533531020000e-001) (6, 1.03896965767418760000e+000) (7, 3.04838750796940560000e-001) (8, -6.99855454348282670000e-001) (9, 9.36601492086283070000e-001) (10, 1.08578362321552000000e+000) (11, 3.54228399970403780000e-001) (12, 3.65817052051964350000e-004) (13, 3.36851690727095640000e-001) (14, 1.01218743071260130000e+000) (15, 7.32563515184065150000e-001) (16, -3.10993231300520420000e-001) (17, 9.39750906195713000000e-001) (18, 6.23698523653251740000e-001) (19, 9.57408377161954820000e-001) (20, -1.82495914932636230000e-001) (21, -1.37054839292550380000e-001) (22, -1.26697173122584130000e-001) (23, -4.27780927215021150000e-001) (24, 1.01937737222598980000e+000) (25, -5.71809798143378730000e-001) (0, 2.83338761673404220000e-001) (1, 2.32266375624123530000e-001) (2, 3.31784199372679670000e-001) (3, -2.40455226831336470000e-002) (4, 3.62696673012179230000e-001) (5, 3.03195331759172350000e-001) (6, 4.09174945189134440000e-001) (7, -4.42847807972220900000e-002) (8, 7.57332703500004920000e-003) (9, 3.82600237761890450000e-001) (10, 3.25074602139066690000e-001) (11, -7.93006504596242140000e-002) (12, 3.49215840257431350000e-001) (13, 6.04149277941751080000e-002) (14, 3.00001359577946270000e-001) (15, -1.74284644858542910000e+000) (16, 1.96647235401732610000e+000) (17, 3.87623431196116860000e-001) (18, -1.86079688979615270000e+000) (19, 3.81385638134416500000e-001) (20, 2.06894427937240180000e+000) (21, 2.15609881235297420000e-001) (22, 2.90591571805736690000e-001) (23, 1.88972064388926150000e+000) (24, 3.49195696248499000000e-001) (25, -8.68358540593063690000e-002) (0, 2.72770319518390260000e-001) (1, -5.30123017583922660000e-001) (2, -5.72395967432588690000e-001) (3, 9.17133514063732220000e-001) (4, 3.19565974512574740000e-001) (5, -5.36281464941315680000e-001) (6, 3.52610408598725170000e-001) (7, 9.54004852503782970000e-001) (8, 4.16601471115704280000e-002) (9, 3.91508114256471140000e-001) (10, 2.76560602777994880000e-001) (11, 9.75989716112632970000e-001) (12, -5.12129853253303620000e-001) (13, 1.10830783331870150000e+000) (14, 4.07682430903737240000e-001) (15, -1.29856384566306950000e+000) (16, 6.29403415254939700000e-001) (17, 3.21323787038768180000e-001) (18, -5.35788498088482390000e-001) (19, 3.78574764454374210000e-001) (20, 7.75253026803268240000e-001) (21, -4.43544647153179540000e-001) (22, -5.31612275418614330000e-001) (23, 1.35536805049663970000e+000) (24, 3.40940486549829780000e-001) (25, 8.72289954468491720000e-002) (0, 4.92402255447759730000e-002) (1, 4.95356812439557980000e-001) (2, 3.88185179983201230000e-001) (3, -2.71638623429318880000e-001) (4, 5.99518956262672650000e-002) (5, 4.23579467619992210000e-001) (6, -9.00725206717707120000e-002) (7, -1.83192577189495110000e-001) (8, 2.32418105724405350000e-001) (9, -6.75200301013374190000e-002) (10, 3.29072174888951630000e-002) (11, -2.68641797212787690000e-001) (12, 5.08766236467498970000e-001) (13, -2.93031446013721770000e-001) (14, 1.96992094795805090000e-002) (15, 1.27698449057848080000e+000) (16, -1.07617853291386620000e-001) (17, 5.89692295959994010000e-002) (18, 4.19956593716776070000e-001) (19, -1.11235448859643150000e-002) (20, -1.77118586748903240000e-001) (21, 3.93708861706135500000e-001) (22, 4.91316285035599430000e-001) (23, -1.17743638194788150000e+000) (24, -7.78288681455760740000e-002) (25, 2.23391005980516090000e-001) (0, 4.07600238134419480000e-001) (1, 2.13549691431037610000e-001) (2, 9.48607248186842530000e-002) (3, 1.22401222983592840000e-001) (4, 4.16975238274117870000e-001) (5, 2.01129036949080440000e-001) (6, 2.25996231522058970000e-001) (7, 1.88264261074403550000e-001) (8, -2.42076792979488560000e-002) (9, 2.83216691359085230000e-001) (10, 3.46253801673411350000e-001) (11, 2.54694926126797560000e-001) (12, 1.89440804353037200000e-001) (13, 2.09541116860203410000e-001) (14, 3.61067034316020720000e-001) (15, -1.74685035489509200000e+000) (16, 2.07514545133980640000e+000) (17, 2.69105363023810050000e-001) (18, -1.82011085403363350000e+000) (19, 2.81056046795639110000e-001) (20, 2.07328998256215780000e+000) (21, 7.24547186254337480000e-002) (22, 2.26397592013111240000e-001) (23, 1.89584247015235880000e+000) (24, 3.13282609775852320000e-001) (25, -8.52062153631478610000e-002) (0, -5.41085522218628930000e-001) (1, 1.86891393458270520000e-001) (2, 2.02101354622416600000e-001) (3, 1.47464257527741090000e-001) (4, -5.68728344896163970000e-001) (5, 1.18727329942546850000e-001) (6, -5.49868481333880220000e-001) (7, 3.11922831389036810000e-002) (8, 9.94917210316702770000e-001) (9, -5.03457347829800450000e-001) (10, -4.81838695163907430000e-001) (11, 2.05350000577805860000e-001) (12, 2.43574743912293250000e-001) (13, 1.19552880158704160000e-001) (14, -4.92312328132476720000e-001) (15, -1.47024827240565040000e-001) (16, 6.11056247012795590000e-001) (17, -5.62545483475907160000e-001) (18, -5.64676437972071230000e-001) (19, -5.04421703312920470000e-001) (20, 6.34402194626302320000e-001) (21, 2.45418005658509990000e-001) (22, 2.09059362538599000000e-001) (23, 3.20027390624779140000e-001) (24, -5.84902661543430070000e-001) (25, 8.65669161515756790000e-001) (26, 1.25295028980688280000e-001) (27, 2.65136620069009180000e-001) (28, 1.55000839970214380000e-001) (29, -3.76255585681717260000e+000) (30, -1.66492221921901270000e-001) (31, 1.20397095026481410000e-001) (32, 4.79185402972996890000e-001) (33, -1.07056185879985300000e-001) (34, 1.54283289793147980000e-001) (35, -7.85289691698991400000e-002) (36, -3.76649262445396000000e+000) (37, -2.20817478604213580000e-002) (38, 3.02244717779195040000e-001) (39, -3.82891938319669120000e+000) (40, 5.93944244588529570000e-001) (41, 4.73143461538457770000e-001) (26, 4.58714921149656230000e-001) (27, 4.30776382665254860000e-001) (28, 5.03398759706122360000e-001) (29, -6.61142759019562320000e-001) (30, -2.02732079678035890000e-002) (31, 2.40056379843604920000e-002) (32, 2.90215148544208600000e-001) (33, 1.29020997538256190000e-001) (34, 3.00930037202114320000e-002) (35, 4.80498368739879890000e-001) (36, -7.76009192230571190000e-002) (37, 4.29826967030836670000e-001) (38, -1.57931901425327950000e-001) (39, -5.11737875119027570000e-001) (40, 3.47656545078405650000e-001) (41, 2.82208546056279490000e-001) (26, 1.91004750091695690000e+000) (27, -2.10873050036321660000e+000) (28, 1.41862324666864020000e-001) (29, 7.52486015900549640000e-001) (30, -2.08177127144586780000e+000) (31, 1.87750345978086790000e-001) (32, 2.57627720262318590000e+000) (33, -2.20544070688243600000e+000) (34, -2.06812381030500480000e+000) (35, 3.21016389607585830000e-001) (36, 1.06004700985257360000e+000) (37, 8.07257886482954820000e-001) (38, -2.08290652536903440000e+000) (39, 6.65163913834687650000e-001) (40, -2.75385957529386600000e-001) (41, 2.21514398824439850000e-001) (26, 2.32091777330816760000e-002) (27, -1.09973666392209150000e-001) (28, 1.76793924944314560000e-002) (29, -3.83718354347608680000e+000) (30, -2.44092320734482840000e-001) (31, 1.71266803092998630000e-001) (32, -6.64110817574353750000e-003) (33, 1.52459616436866010000e-001) (34, -1.69580600874171710000e-001) (35, -7.27550433026109420000e-002) (36, -3.90051362254477850000e+000) (37, 4.35044777315250370000e-001) (38, 1.89929099417079780000e-001) (39, -3.92900483390683060000e+000) (40, 5.84697418278866120000e-001) (41, 4.71593168546606600000e-001) (26, 3.98233161570123450000e-001) (27, 1.95454872721922270000e-001) (28, 2.01440122470051000000e-002) (29, 1.27564171712097200000e+000) (30, -2.96070950940670710000e-001) (31, 5.50836483445604100000e-001) (32, 7.95563040109762640000e-001) (33, 2.70827828178103050000e-003) (34, 4.78670087093830630000e-001) (35, -4.15320140626643240000e-002) (36, 1.44146024242202310000e+000) (37, 4.99090357586868590000e-001) (38, 3.72804607000687180000e-001) (39, 5.22197571899679860000e-001) (40, 4.97674861559684380000e-001) (41, 4.93420711105667600000e-001) (26, 2.64820518995114330000e-001) (27, 1.25255288967652940000e+000) (28, 7.33223251373366300000e-001) (29, -1.57405580266433760000e+000) (30, 2.86671281254312630000e-001) (31, -8.87014340109085890000e-002) (32, -1.03535073058144110000e-001) (33, -1.07057185200470060000e-001) (34, -1.30915828134116560000e-001) (35, 8.55602168506860440000e-001) (36, -1.51215394627317810000e+000) (37, -4.09778986026837930000e-001) (38, -5.59844345424202580000e-003) (39, -2.95567084378791530000e-001) (40, 3.95944663383492050000e-002) (41, 8.78391900423627910000e-003) (26, 8.92906384777493320000e-002) (27, 2.01820909027262710000e-001) (28, 1.57772084810702400000e-001) (29, 4.28025552310218880000e-001) (30, 7.79930267766604510000e-002) (31, 1.73925008358288530000e-001) (32, 6.44688874250933460000e-001) (33, -6.68637065550692800000e-001) (34, -1.99717945356248730000e-001) (35, 1.73288410065655370000e-002) (36, 3.91209034694654070000e-001) (37, 6.02318268150812240000e-001) (38, -3.42973562725298780000e-001) (39, 7.36803064025772670000e-001) (40, 6.05175006414967910000e-001) (41, 9.20769405806052930000e-001) (26, 2.44238284600736410000e-001) (27, -1.04576449450178580000e-001) (28, -2.62317661191401650000e-001) (29, -7.66580818688548440000e-001) (30, -1.45097690288367110000e-001) (31, 5.40420703289258510000e-001) (32, 4.51908466741310240000e-001) (33, -1.36912875713278870000e-001) (34, -1.46281772337261310000e-001) (35, 1.08077861677164850000e-001) (36, -6.96127936779343590000e-001) (37, 4.54667255844919400000e-001) (38, 1.62215655817109450000e-001) (39, -7.55728767745590280000e-001) (40, 4.74362352695537390000e-001) (41, 4.78262499238029100000e-001) (26, -7.83222929462901730000e-002) (27, -8.32107492982554760000e-002) (28, 9.51075005202450250000e-002) (29, -1.14018662553344190000e+000) (30, 7.15004802327378620000e-001) (31, 1.51091273366299160000e-001) (32, -2.21937186352777010000e-001) (33, 1.31164558507391980000e-001) (34, -1.92520081108209920000e-002) (35, -6.69482750613500930000e-002) (36, -6.64569023356658790000e-001) (37, -2.99647148448245690000e-001) (38, 6.44887613782551110000e-001) (39, -7.11358574835127430000e-001) (40, -2.01393625208126430000e-001) (41, -2.36861155033508800000e-001) (26, 4.18399067749221980000e-001) (27, 5.78754768773811490000e-001) (28, 3.88449116131057930000e-001) (29, -3.78097016373219220000e+000) (30, -4.96839181063760890000e-002) (31, -5.27417937152974620000e-002) (32, 1.02740363607975030000e-001) (33, -1.80228536507938600000e-001) (34, 6.06690560205712210000e-001) (35, 3.01116818935082130000e-001) (36, -9.57315105179131540000e-001) (37, 1.79278450685981330000e-001) (38, 2.30183207011544520000e-001) (39, 1.21321943903685610000e-001) (40, 2.66062921900283800000e-001) (41, 2.54551691260003100000e-001) (42, 5.43897993252480120000e-001) (43, 3.78054291763207570000e+000) (44, 3.82591645346444410000e+000) (45, 2.82449761248166790000e-001) (46, 5.85774280994594050000e-001) (47, -1.60117982650601710000e+000) (48, 1.38783265058977490000e+000) (49, 1.92206927718379370000e+000) (50, -1.65830190577593430000e+000) (51, -4.40755533922334800000e-001) (52, -5.66400598336553100000e-001) (42, -3.81471650212567680000e+000) (43, 8.28590859412691310000e-002) (44, 5.80605015873664340000e-002) (45, -3.93073212885444430000e+000) (46, 5.32113490816377930000e-001) (47, -2.56400825930410030000e-001) (48, -4.53247865468461740000e-001) (49, -5.31543765072661540000e-001) (50, -2.60208260073694020000e-001) (51, -2.45093260270127180000e-001) (52, -3.18723951606295300000e-001) (42, 7.58220300673039360000e-001) (43, 5.74055530819971070000e-001) (44, -1.13708133522628700000e+000) (45, 5.84321840077752120000e-001) (46, -6.73969905264015900000e-001) (47, 8.13475391160864200000e-001) (48, -1.12011966505166340000e+000) (49, 1.73709871313303590000e-001) (50, 2.79673916661613900000e-001) (51, 7.64030847634623260000e-001) (52, -1.29069369573062610000e+000) 
