FANN_FLO_2.1
num_layers=4
learning_rate=0.700000
connection_rate=1.000000
network_type=0
learning_momentum=0.000000
training_algorithm=2
train_error_function=1
train_stop_function=0
cascade_output_change_fraction=0.010000
quickprop_decay=-0.000100
quickprop_mu=1.750000
rprop_increase_factor=1.200000
rprop_decrease_factor=0.500000
rprop_delta_min=0.000000
rprop_delta_max=50.000000
rprop_delta_zero=0.100000
cascade_output_stagnation_epochs=12
cascade_candidate_change_fraction=0.010000
cascade_candidate_stagnation_epochs=12
cascade_max_out_epochs=150
cascade_min_out_epochs=50
cascade_max_cand_epochs=150
cascade_min_cand_epochs=50
cascade_num_candidate_groups=2
bit_fail_limit=3.49999999999999980000e-001
cascade_candidate_limit=1.00000000000000000000e+003
cascade_weight_multiplier=4.00000000000000020000e-001
cascade_activation_functions_count=10
cascade_activation_functions=3 5 7 8 10 11 14 15 16 17 
cascade_activation_steepnesses_count=4
cascade_activation_steepnesses=2.50000000000000000000e-001 5.00000000000000000000e-001 7.50000000000000000000e-001 1.00000000000000000000e+000 
layer_sizes=26 16 11 4 
scale_included=0
neurons (num_inputs, activation_function, activation_steepness)=(0, 0, 0.00000000000000000000e+000) (0, 0, 0.00000000000000000000e+000) (0, 0, 0.00000000000000000000e+000) (0, 0, 0.00000000000000000000e+000) (0, 0, 0.00000000000000000000e+000) (0, 0, 0.00000000000000000000e+000) (0, 0, 0.00000000000000000000e+000) (0, 0, 0.00000000000000000000e+000) (0, 0, 0.00000000000000000000e+000) (0, 0, 0.00000000000000000000e+000) (0, 0, 0.00000000000000000000e+000) (0, 0, 0.00000000000000000000e+000) (0, 0, 0.00000000000000000000e+000) (0, 0, 0.00000000000000000000e+000) (0, 0, 0.00000000000000000000e+000) (0, 0, 0.00000000000000000000e+000) (0, 0, 0.00000000000000000000e+000) (0, 0, 0.00000000000000000000e+000) (0, 0, 0.00000000000000000000e+000) (0, 0, 0.00000000000000000000e+000) (0, 0, 0.00000000000000000000e+000) (0, 0, 0.00000000000000000000e+000) (0, 0, 0.00000000000000000000e+000) (0, 0, 0.00000000000000000000e+000) (0, 0, 0.00000000000000000000e+000) (0, 0, 0.00000000000000000000e+000) (26, 5, 5.00000000000000000000e-001) (26, 5, 5.00000000000000000000e-001) (26, 5, 5.00000000000000000000e-001) (26, 5, 5.00000000000000000000e-001) (26, 5, 5.00000000000000000000e-001) (26, 5, 5.00000000000000000000e-001) (26, 5, 5.00000000000000000000e-001) (26, 5, 5.00000000000000000000e-001) (26, 5, 5.00000000000000000000e-001) (26, 5, 5.00000000000000000000e-001) (26, 5, 5.00000000000000000000e-001) (26, 5, 5.00000000000000000000e-001) (26, 5, 5.00000000000000000000e-001) (26, 5, 5.00000000000000000000e-001) (26, 5, 5.00000000000000000000e-001) (0, 5, 0.00000000000000000000e+000) (16, 5, 5.00000000000000000000e-001) (16, 5, 5.00000000000000000000e-001) (16, 5, 5.00000000000000000000e-001) (16, 5, 5.00000000000000000000e-001) (16, 5, 5.00000000000000000000e-001) (16, 5, 5.00000000000000000000e-001) (16, 5, 5.00000000000000000000e-001) (16, 5, 5.00000000000000000000e-001) (16, 5, 5.00000000000000000000e-001) (16, 5, 5.00000000000000000000e-001) (0, 5, 0.00000000000000000000e+000) (11, 5, 5.00000000000000000000e-001) (11, 5, 5.00000000000000000000e-001) (11, 5, 5.00000000000000000000e-001) (0, 5, 0.00000000000000000000e+000) 
connections (connected_to_neuron, weight)=(0, 5.82476735305777480000e-002) (1, -2.03368402075668340000e-001) (2, -3.27166019928356140000e-001) (3, 6.64994287861159550000e-001) (4, 1.31770621259211630000e-001) (5, -1.81963375759025580000e-001) (6, 7.33477652263632710000e-002) (7, 6.08152243865302310000e-001) (8, 1.40487860872747840000e-001) (9, 1.01069937665461630000e-001) (10, 1.56276236493586630000e-001) (11, 7.37052399290374030000e-001) (12, -2.25475340139766690000e-001) (13, 7.46677640450766790000e-001) (14, 9.46124151539793900000e-002) (15, 3.54853341891767650000e-001) (16, -1.16983478377568910000e+000) (17, 1.40791620333193870000e-001) (18, 1.69391804296456570000e+000) (19, -1.39202967095383640000e-002) (20, -1.18815753842699710000e+000) (21, -1.73613763403793340000e-001) (22, -1.99077642512222290000e-001) (23, -8.55855824160582090000e-002) (24, 6.04876607847205090000e-002) (25, 2.29977611436846220000e-001) (0, -3.51650818782614500000e-001) (1, -3.94244478276207790000e-001) (2, -2.73144629975989210000e-001) (3, 5.75213110207753230000e-001) (4, -2.31838799613283880000e-001) (5, -3.08972266694739210000e-001) (6, -2.36648372906016120000e-001) (7, 6.64275614678101480000e-001) (8, 6.25232675076296210000e-001) (9, -3.27303897189663680000e-001) (10, -2.51235782700346740000e-001) (11, 6.25054424761967710000e-001) (12, -4.34491058072283610000e-001) (13, 6.90764872490601480000e-001) (14, -3.40835392075346740000e-001) (15, 7.03848930044912780000e-001) (16, -1.68376918317084480000e+000) (17, -1.83608822124766120000e-001) (18, 2.03538570504170040000e+000) (19, -3.62838565903471740000e-001) (20, -1.64645229087476900000e+000) (21, -3.51666351041033610000e-001) (22, -3.27215668937399730000e-001) (23, -4.28494993697614730000e-001) (24, -2.57235534089373390000e-001) (25, 5.37787602246572850000e-001) (0, -4.81461325143814070000e-002) (1, -1.25423715972134730000e-001) (2, -1.00454227589795250000e-001) (3, 5.39928543295958300000e-001) (4, -7.03324118112564070000e-002) (5, -1.20858283304402490000e-001) (6, 5.76583108449936210000e-002) (7, 3.78722484138110050000e-001) (8, 3.29888786507420260000e-001) (9, 3.69185617710113960000e-002) (10, -7.01676161443233470000e-002) (11, 3.80779373374083410000e-001) (12, -1.88271613382527490000e-001) (13, 5.58446603741743820000e-001) (14, -3.22769918893814070000e-002) (15, -1.68054653139119310000e+000) (16, 3.74449796866611400000e-001) (17, -5.67154699419975260000e-002) (18, -1.05263748845293380000e-001) (19, 6.55745676303863820000e-002) (20, 4.31877776872352510000e-001) (21, -1.15835086964795250000e-001) (22, -9.42591592304202470000e-002) (23, 1.99321041207295010000e+000) (24, -1.02961804852390290000e-001) (25, 4.34728871417813020000e-001) (0, 4.63924640561396150000e-002) (1, 4.18599658670525950000e-001) (2, 3.39723930718999310000e-001) (3, -1.04910234467223110000e-001) (4, 8.03951481128984960000e-002) (5, 3.15193899932008190000e-001) (6, 1.20965220942621850000e-001) (7, -7.51922079484013960000e-002) (8, 3.11865484217164530000e-001) (9, 9.55562824155146150000e-002) (10, 9.92122823144251380000e-002) (11, -1.71090649918749750000e-001) (12, 3.71248585196834010000e-001) (13, -2.07656814263298930000e-001) (14, -3.90506526683514770000e-002) (15, 2.04382077555637930000e+000) (16, -2.87052121113748560000e-001) (17, 4.19246861482912570000e-002) (18, 5.75833791836046550000e-001) (19, 2.07088673259073760000e-002) (20, -3.71964234959096970000e-001) (21, 3.76314506890874310000e-001) (22, 4.97731738748650950000e-001) (23, -1.65646816225056810000e+000) (24, -3.25443065022175960000e-002) (25, 3.82550297180173420000e-001) (0, 5.85706576035126660000e-001) (1, -6.92588569170670690000e-001) (2, -6.46684029645161810000e-001) (3, 1.09018246657382250000e+000) (4, 4.66565951035126660000e-001) (5, -6.74082705325322330000e-001) (6, 5.07203161046608900000e-001) (7, 1.08859555251132250000e+000) (8, -2.57394097823337780000e-001) (9, 5.28132110164269420000e-001) (10, 5.21247349009617780000e-001) (11, 1.02596737272273300000e+000) (12, -5.92612983233170690000e-001) (13, 1.07696224576960800000e+000) (14, 4.58649690524443600000e-001) (15, -4.36576049875230850000e-001) (16, 7.03189747377180540000e-001) (17, 5.04822789952858900000e-001) (18, -3.75650752436132500000e-001) (19, 5.87501018569573370000e-001) (20, 6.39511765881323300000e-001) (21, -5.86863474494652930000e-001) (22, -6.88938667571978750000e-001) (23, 7.18942927165770020000e-001) (24, 4.36182654724225020000e-001) (25, -1.51125781315998270000e-001) (0, 6.17665457827058060000e-001) (1, 1.09495076838302230000e-001) (2, 1.21177207234668350000e-001) (3, 1.40033426558209740000e-001) (4, 4.31392262977567000000e-001) (5, 1.98624718490409440000e-001) (6, 5.92915701967683060000e-001) (7, 4.22795143477452530000e-002) (8, -2.02767524804078780000e-001) (9, 5.96101734143700820000e-001) (10, 5.64119312268700930000e-001) (11, 1.28851788913441980000e-001) (12, 2.59745325449275530000e-001) (13, -1.31098899491297400000e-002) (14, 5.16621756655183170000e-001) (15, 1.27988085487590640000e+000) (16, 3.43978217388153510000e-002) (17, 5.42305345934834810000e-001) (18, 3.51739372444920260000e-001) (19, 6.16328793865647540000e-001) (20, -9.59244483565330490000e-002) (21, 2.59885709288882770000e-001) (22, 1.44297323677110290000e-001) (23, -8.36742431826708600000e-001) (24, 5.49849289757218700000e-001) (25, -3.02767518843614300000e-001) (0, -1.38531451721192110000e-001) (1, -3.31603667597771880000e-001) (2, -3.09338039617539640000e-001) (3, 6.22236528279784480000e-001) (4, -1.11090046961308240000e-001) (5, -3.19903227399588820000e-001) (6, -2.12725786168576010000e-001) (7, 6.71040245177748960000e-001) (8, 4.03765238943101460000e-001) (9, -2.44158891637326010000e-001) (10, -1.97998003710509070000e-001) (11, 6.57618605377677250000e-001) (12, -2.77068755488396880000e-001) (13, 6.29145704987052250000e-001) (14, -1.52954054672718780000e-001) (15, -8.57170501009437810000e-001) (16, 3.91887192300992560000e-001) (17, -2.09606891174317130000e-001) (18, -7.32971487922952360000e-003) (19, -1.91772417773009070000e-001) (20, 4.03587636224465920000e-001) (21, -2.21453516643048460000e-001) (22, -2.94701813619138000000e-001) (23, 1.34845975394085070000e+000) (24, -1.48040724594593780000e-001) (25, 4.98021841170789290000e-001) (0, -2.24548292953968780000e-001) (1, -3.10223049383164640000e-001) (2, -3.48394437592030760000e-001) (3, 5.19013867559436240000e-001) (4, -1.04937700231076000000e-001) (5, -3.33880278180838820000e-001) (6, -6.60827138018615230000e-002) (7, 5.62464796783927360000e-001) (8, 3.98900739970208700000e-001) (9, -2.28198198277951010000e-001) (10, -7.86742695164687620000e-002) (11, 6.84156694295409480000e-001) (12, -3.68615387837888000000e-001) (13, 5.14771924200061240000e-001) (14, -1.68353227574826010000e-001) (15, -2.89114487837982880000e-001) (16, -1.15305107074545420000e-001) (17, -2.07641558398009070000e-001) (18, 3.79824734503794840000e-001) (19, -7.00683124852187620000e-002) (20, -1.69888842838572060000e-001) (21, -3.64422275583745240000e-001) (22, -3.62383699874879120000e-001) (23, 6.20344041759208990000e-001) (24, -6.78527333331115230000e-002) (25, 3.81603375198842580000e-001) (0, -1.36231339504718610000e-001) (1, -1.74151676917076000000e-001) (2, -2.30999822938442120000e-001) (3, 5.79237659618856540000e-001) (4, -1.97199358572959730000e-001) (5, -1.46606515371799360000e-001) (6, -1.78565326114892790000e-001) (7, 5.00520621583463780000e-001) (8, 3.35857985699178020000e-001) (9, -1.00989638795852490000e-001) (10, -1.45087539186477490000e-001) (11, 4.67756946728231540000e-001) (12, -1.98889228725433240000e-001) (13, 3.99794300243856540000e-001) (14, -1.78901019474267790000e-001) (15, -7.12087988591181280000e-002) (16, -5.81566974062161070000e-001) (17, -4.37691872620580990000e-002) (18, 8.99373807809458080000e-001) (19, -8.55965679192541300000e-002) (20, -6.01458332974152190000e-001) (21, -2.65069644176959880000e-001) (22, -1.80035467469692120000e-001) (23, 3.25202252264023660000e-001) (24, -1.92017472317218610000e-001) (25, 3.76501297736169140000e-001) (0, -7.59871328473081810000e-002) (1, -4.05640235201552900000e-001) (2, -3.62714206830695660000e-001) (3, 6.87502621939283800000e-001) (4, 2.25419303178796410000e-002) (5, -4.67712989107802900000e-001) (6, -6.78938651680937030000e-002) (7, 7.23775810828310440000e-001) (8, 3.89977921743393130000e-001) (9, -1.43784979939459820000e-001) (10, 1.18668725490579280000e-002) (11, 7.82308525672060440000e-001) (12, -3.12500586764052900000e-001) (13, 7.00185730388266040000e-001) (14, -1.07466528415670720000e-002) (15, -4.35205173870756970000e-001) (16, -3.50753604965971740000e-001) (17, -4.54146215915670750000e-002) (18, 6.63623780906965610000e-001) (19, -1.17503243148325940000e-001) (20, -2.88851745026873390000e-001) (21, -4.54566014961436780000e-001) (22, -3.92169771746829540000e-001) (23, 6.59832252322869240000e-001) (24, -4.11213433742431060000e-003) (25, 2.36657609243393160000e-001) (0, -1.70857564191819240000e-001) (1, -2.78982460236536600000e-002) (2, -1.45909728083609250000e-001) (3, 4.97162702972889780000e-001) (4, -1.67622700910569240000e-001) (5, -1.91850887212752010000e-001) (6, -2.15462059359551480000e-001) (7, 4.33600689764023610000e-001) (8, 4.58307698204519780000e-001) (9, -2.61525288801194240000e-001) (10, -2.21553367208243420000e-001) (11, 3.62378768171072840000e-001) (12, -1.08379209015368130000e-001) (13, 4.33234478826523610000e-001) (14, -1.00581683795453130000e-001) (15, 5.05532164494231550000e-001) (16, -5.82348281403989090000e-001) (17, -1.26613177936078130000e-001) (18, 1.04072766122958440000e+000) (19, -1.97841212730408720000e-001) (20, -7.26519426217288160000e-001) (21, -7.41567998862253660000e-002) (22, -1.74986878011225370000e-001) (23, -1.42783453704550200000e-001) (24, -9.31842258381853640000e-002) (25, 4.10932209178211720000e-001) (0, -6.79476778996199180000e-001) (1, 2.48588121210767230000e-001) (2, 3.73630842839909990000e-001) (3, 5.64335358174318790000e-002) (4, -6.53311006766766120000e-001) (5, 3.40684077417088950000e-001) (6, -5.81600807649105600000e-001) (7, 1.65958923132891110000e-002) (8, 8.12243439053507710000e-001) (9, -6.25436253887623360000e-001) (10, -6.11166231376141120000e-001) (11, -1.20019093450737520000e-001) (12, 3.75858626043034990000e-001) (13, 1.34403777153963500000e-002) (14, -7.04995580059498360000e-001) (15, -1.40313739361452310000e-002) (16, 1.96335925435258350000e-001) (17, -6.14443823737114480000e-001) (18, -8.04866257278447630000e-002) (19, -5.63766323071926640000e-001) (20, 2.78000964497758350000e-001) (21, 2.77756823872758350000e-001) (22, 2.31864488398267230000e-001) (23, 2.93586318928210850000e-001) (24, -7.26852268022507240000e-001) (25, 9.06652621721239950000e-001) (0, -1.60352433999776670000e-001) (1, -1.25903378450870410000e-001) (2, -1.46325747692584880000e-001) (3, 5.65877069876196010000e-001) (4, -6.58639138245580850000e-002) (5, -2.54229801917076000000e-001) (6, -1.95313370754718610000e-001) (7, 4.11043082520963780000e-001) (8, 2.99267409527303020000e-001) (9, -1.03492080202102490000e-001) (10, -1.18689834108352490000e-001) (11, 4.85805046901704840000e-001) (12, -2.06469792151451000000e-001) (13, 4.68037706956865420000e-001) (14, -7.55685036683080850000e-002) (15, 2.87423904969694550000e-001) (16, -5.04156089860634430000e-001) (17, -2.00672260453700850000e-001) (18, 9.51107204756841960000e-001) (19, -2.04956925442218630000e-001) (20, -4.87633861142830470000e-001) (21, -2.63659733557701000000e-001) (22, -2.43359442079067100000e-001) (23, 1.90753072690955130000e-002) (24, -4.84139537119863680000e-002) (25, 4.09423662507535260000e-001) (0, -4.16330958373994920000e-002) (1, -1.48564328406620620000e-001) (2, -2.83049200628567310000e-001) (3, 5.04725488985349750000e-001) (4, -1.07309857972116490000e-002) (5, -2.24510380034018160000e-001) (6, -4.33664883144350140000e-002) (7, 3.52430562640001390000e-001) (8, 3.03491619602011880000e-001) (9, -1.30866494274899460000e-001) (10, -1.21784460044667230000e-001) (11, 3.60059957171251390000e-001) (12, -1.39750857804585100000e-001) (13, 4.89881741965581980000e-001) (14, -3.54075098998994920000e-002) (15, 1.64907794247565850000e+000) (16, -4.55633921822518330000e-001) (17, 2.46022601954488730000e-002) (18, 8.69922998846980660000e-001) (19, -8.14463237889261060000e-002) (20, -4.96680064400643330000e-001) (21, -9.47008030159956220000e-002) (22, -2.60063362274933430000e-001) (23, -1.53209568373274550000e+000) (24, -3.34543848998994920000e-002) (25, 2.46149090305136900000e-001) (0, 6.93774507935527720000e-002) (1, 3.54541326437095570000e-001) (2, 4.61493233714202700000e-001) (3, -3.06308638755798810000e-002) (4, 1.95427259951401120000e-001) (5, 3.32068181160787510000e-001) (6, 2.52556166201401090000e-001) (7, -1.04709233761262930000e-001) (8, 2.25711227390864490000e-001) (9, 1.15330821424293880000e-001) (10, 1.45543223768043880000e-001) (11, -6.33396056000709860000e-002) (12, 3.48675849411586690000e-001) (13, 2.89882722790717610000e-002) (14, 2.05601817518043880000e-001) (15, 1.84891720067244130000e+000) (16, -6.99690073679895550000e-001) (17, 2.00944832115936640000e-001) (18, 7.91718808754229180000e-001) (19, 1.53923353701401120000e-001) (20, -5.19471570800752900000e-001) (21, 4.07379458222488220000e-001) (22, 3.61658024165729340000e-001) (23, -1.65381923497920200000e+000) (24, 2.47960215955543880000e-001) (25, 7.74690294600516440000e-002) (26, 6.79993421734144570000e-001) (27, -1.18675368925764660000e-001) (28, 1.64548470938970540000e-001) (29, -1.40650555832868350000e-002) (30, 2.53918517994882520000e-001) (31, 7.56559538590149350000e-001) (32, 1.61392952615787480000e-001) (33, 9.85824406433107730000e-002) (34, 3.81603410037019420000e-002) (35, -4.80921135155700090000e-002) (36, -5.71097553621740640000e-001) (37, -5.52474819165676640000e-001) (38, -1.50405348917677230000e-001) (39, -3.43723263691873560000e-001) (40, -5.60795151405662050000e-001) (41, -5.79482875806301640000e-001) (26, -2.79458784187602280000e-001) (27, -7.79734475073692870000e-001) (28, 1.33022508123468810000e+000) (29, 8.54006593807208060000e-002) (30, 4.30187177910044460000e-001) (31, 6.54116457088458060000e-002) (32, 3.07419647278470710000e-002) (33, -2.31686570370959490000e-001) (34, -4.10577980832294020000e-001) (35, -1.30880900347994990000e-001) (36, -8.40900975165245420000e-001) (37, -6.03354406642922500000e-002) (38, -4.05054299191669020000e-001) (39, -5.05897300389883230000e-001) (40, -2.39867324280946510000e-001) (41, 3.53713535976402650000e-002) (26, -1.40041301982217200000e-002) (27, 4.13746613784574450000e-001) (28, -8.29003182767840460000e-001) (29, 3.43586520563797130000e-001) (30, -1.73763659133177320000e-001) (31, 1.07476102890565480000e+000) (32, -1.67974086285834480000e+000) (33, -3.20976953090770290000e-001) (34, 1.74189505227348910000e-001) (35, 2.02839409061215030000e-001) (36, 4.11769073231958330000e-001) (37, -2.35030359527304420000e-001) (38, 2.72382867582581120000e-001) (39, 8.04408019228720290000e-001) (40, 1.93329220216255740000e+000) (41, -2.52388759454920560000e-001) (26, 5.49928638440575930000e-001) (27, -6.59653798454135410000e-001) (28, 2.60178801229986210000e-001) (29, 1.99345881545544470000e-001) (30, 2.74375474726392230000e-001) (31, 1.00297220030924890000e+000) (32, -3.12405901883078260000e-001) (33, 1.98606430267526110000e-001) (34, -5.44355450325339500000e-001) (35, -3.20061333983934160000e-001) (36, 1.39219869043064020000e-001) (37, -7.23898164969891120000e-001) (38, 1.14995014037322900000e-001) (39, 6.26453970329280270000e-002) (40, 1.48074143612385360000e-001) (41, -7.27425999981373360000e-001) (26, 9.99250239185820450000e-002) (27, 1.32076463201593810000e+000) (28, -1.15875562744688330000e+000) (29, 2.03269751226140110000e-001) (30, 9.56383735053085300000e-002) (31, 1.74369604741765110000e-001) (32, -9.39896480553858660000e-001) (33, 4.67532684784367490000e-001) (34, 1.35062969322514180000e+000) (35, 8.39503586234063960000e-001) (36, 1.32128398711990960000e+000) (37, 4.68324804039476910000e-002) (38, 1.48779399539541850000e+000) (39, 2.50602511116582340000e+000) (40, 1.26662034639667920000e+000) (41, 1.92975056293773510000e-001) (26, -4.08280075260606720000e-001) (27, 5.22221340353932060000e-002) (28, 1.11204633841616760000e-001) (29, 4.00950913004117560000e-001) (30, -3.68308142491785010000e-001) (31, 4.42495201583414240000e-002) (32, 1.12479067161085160000e-001) (33, -4.95700725087133360000e-001) (34, -6.49198675102429570000e-001) (35, -1.16068298278402680000e+000) (36, -6.52763129717545690000e-001) (37, -1.08164424489531120000e-001) (38, -6.43662789410786810000e-001) (39, -1.15727374563920680000e+000) (40, -1.20382191348082020000e-002) (41, 4.46652020265070230000e-001) (26, 2.98484525614546410000e-001) (27, 8.62098453386568650000e-001) (28, -1.77902233678309930000e-001) (29, 9.69451695476981070000e-001) (30, -3.96975410062508030000e-001) (31, 8.86681921576472190000e-001) (32, -1.14503199081968580000e+000) (33, -5.52401442903713740000e-001) (34, 2.66432255942820940000e-001) (35, -5.10964673835472620000e-001) (36, 4.67585723622583330000e-001) (37, -5.64181365114658880000e-001) (38, 2.40570796742440250000e-001) (39, 3.58324311565593630000e-001) (40, 5.53135895568340090000e-001) (41, -6.84268038761824180000e-001) (26, -2.76824614863396880000e-001) (27, -2.76186950104998390000e-001) (28, -4.49310396990015850000e-001) (29, 1.99513521316052910000e-001) (30, -9.76968228385327490000e-001) (31, 1.47926602783204550000e-001) (32, -7.90892829715224340000e-001) (33, -8.90395968720791960000e-001) (34, -7.11478950030045690000e-001) (35, -7.30393746442036810000e-001) (36, -6.98344183659987630000e-001) (37, -9.03731161952009420000e-002) (38, -6.56864689237313450000e-001) (39, 7.01861486029616290000e-002) (40, 5.89853904766610370000e-001) (41, -2.80285383041999130000e-001) (26, -6.17061947393426900000e-002) (27, 3.83177824210361400000e-001) (28, -8.84709970622273520000e-001) (29, 2.58790862085820640000e-001) (30, -5.67844913846688450000e-001) (31, 2.06343349339963430000e-001) (32, -1.59850306988959480000e+000) (33, -6.69895695096688450000e-001) (34, -7.22654485649304570000e-001) (35, -6.84940864837603750000e-001) (36, -6.18750082691156000000e-002) (37, -6.31408222508437620000e-002) (38, -6.77769233978228750000e-001) (39, 4.65148046504691990000e-001) (40, 4.64348126820760320000e-001) (41, 7.72192982840532310000e-002) (26, -4.43582811125722840000e-001) (27, -1.17596271495330520000e+000) (28, 5.97153700686522820000e-002) (29, 3.65446765593724800000e-001) (30, -5.10666549869981720000e-001) (31, 5.18181188529304060000e-001) (32, 2.56150238014289240000e-002) (33, -4.56058391102758360000e-001) (34, -7.28568855592221950000e-001) (35, -1.24641296548795100000e+000) (36, -6.34910346514420690000e-001) (37, 1.27139202501012900000e-001) (38, -6.47550725883679570000e-001) (39, -1.64156794625953870000e-001) (40, 3.53751867049502010000e-001) (41, 4.43990505828527480000e-002) (42, 4.48539943832366780000e-001) (43, -5.50694559852605220000e-002) (44, -1.19269115266984720000e+000) (45, 1.22557985001158070000e+000) (46, 3.14584211777880760000e-001) (47, -1.52358738146137940000e+000) (48, -4.09733825759967670000e-003) (49, -2.53241671421843950000e+000) (50, -1.68195033998494310000e+000) (51, -1.46184421143841490000e+000) (52, -2.03580142947640040000e-001) (42, 8.92089634930106070000e-001) (43, 2.58986300775128790000e+000) (44, -3.92101240577378270000e-002) (45, 1.00289896110198120000e+000) (46, -2.48504732349235000000e+000) (47, 4.11747328525990050000e-001) (48, -2.46532498400916960000e-001) (49, 1.25665244538142940000e+000) (50, 4.67661956122685240000e-001) (51, 4.82877701109856170000e-001) (52, -5.26028236071304330000e-001) (42, 1.20703595554066980000e-001) (43, -5.68765349709503100000e-001) (44, 1.24843142145227740000e+000) (45, 5.73451596600022650000e-001) (46, 9.55547123664133860000e-001) (47, -1.08861805381013590000e-001) (48, 1.39154711463999200000e+000) (49, 5.75342611502209220000e-001) (50, 9.30808998466941760000e-001) (51, -8.95746960060135880000e-002) (52, -1.68246041919194900000e-001) 
